{"learner":{"attributes":{"scikit_learn":"{\"_estimator_type\": \"classifier\"}"},"feature_names":[],"feature_types":[],"gradient_booster":{"model":{"cats":{"enc":[],"feature_segments":[],"sorted_idx":[]},"gbtree_model_param":{"num_parallel_tree":"1","num_trees":"150"},"iteration_indptr":[0,1,2,3,4,5,6,7,8,9,10,11,12,13,14,15,16,17,18,19,20,21,22,23,24,25,26,27,28,29,30,31,32,33,34,35,36,37,38,39,40,41,42,43,44,45,46,47,48,49,50,51,52,53,54,55,56,57,58,59,60,61,62,63,64,65,66,67,68,69,70,71,72,73,74,75,76,77,78,79,80,81,82,83,84,85,86,87,88,89,90,91,92,93,94,95,96,97,98,99,100,101,102,103,104,105,106,107,108,109,110,111,112,113,114,115,116,117,118,119,120,121,122,123,124,125,126,127,128,129,130,131,132,133,134,135,136,137,138,139,140,141,142,143,144,145,146,147,148,149,150],"tree_info":[0,0,0,0,0,0,0,0,0,0,0,0,0,0,0,0,0,0,0,0,0,0,0,0,0,0,0,0,0,0,0,0,0,0,0,0,0,0,0,0,0,0,0,0,0,0,0,0,0,0,0,0,0,0,0,0,0,0,0,0,0,0,0,0,0,0,0,0,0,0,0,0,0,0,0,0,0,0,0,0,0,0,0,0,0,0,0,0,0,0,0,0,0,0,0,0,0,0,0,0,0,0,0,0,0,0,0,0,0,0,0,0,0,0,0,0,0,0,0,0,0,0,0,0,0,0,0,0,0,0,0,0,0,0,0,0,0,0,0,0,0,0,0,0,0,0,0,0,0,0],"trees":[{"base_weights":[-0E0,-1.4482758E0,1.68E0,1E-1,-1.7037038E0,-0E0,1.8260871E-1,-1.84E-1,-0E0],"categories":[],"categories_nodes":[],"categories_segments":[],"categories_sizes":[],"default_left":[0,0,0,0,0,0,0,0,0],"id":0,"left_children":[1,3,5,-1,7,-1,-1,-1,-1],"loss_changes":[6.5693794E1,1.0771391E1,3.0678291E0,0E0,3.1348152E0,0E0,0E0,0E0,0E0],"parents":[2147483647,0,0,1,1,2,2,4,4],"right_children":[2,4,6,-1,8,-1,-1,-1,-1],"split_conditions":[-3.5026448E-33,-4.6241857E-2,-6.566751E-2,1E-1,4.7727145E-2,-0E0,1.8260871E-1,-1.84E-1,-0E0],"split_indices":[127,267,18,0,148,0,0,0,0],"split_type":[0,0,0,0,0,0,0,0,0],"sum_hessian":[2.5E1,1.35E1,1.15E1,1E0,1.25E1,1E0,1.05E1,1.15E1,1E0],"tree_param":{"num_deleted":"0","num_feature":"384","num_nodes":"9","size_leaf_vector":"1"}},{"base_weights":[3.7984957E-3,-1.3186753E0,1.5377423E0,-1.6851966E-1,3.1055853E-1,-0E0,1.6724788E-1,1.07870296E-1,-5.9862595E-2],"categories":[],"categories_nodes":[],"categories_segments":[],"categories_sizes":[],"default_left":[0,0,0,0,0,0,0,0,0],"id":1,"left_children":[1,3,5,-1,7,-1,-1,-1,-1],"loss_changes":[5.439339E1,9.122723E0,2.5718422E0,0E0,3.082466E0,0E0,0E0,0E0,0E0],"parents":[2147483647,0,0,1,1,2,2,4,4],"right_children":[2,4,6,-1,8,-1,-1,-1,-1],"split_conditions":[-3.5026448E-33,3.5606135E-2,-6.566751E-2,-1.6851966E-1,3.9399564E-2,-0E0,1.6724788E-1,1.07870296E-1,-5.9862595E-2],"split_indices":[127,317,18,0,6,0,0,0,0],"split_type":[0,0,0,0,0,0,0,0,0],"sum_hessian":[2.4813665E1,1.3400715E1,1.1412951E1,1.0911627E1,2.4890876E0,1E0,1.0412951E1,1.2481282E0,1.2409595E0],"tree_param":{"num_deleted":"0","num_feature":"384","num_nodes":"9","size_leaf_vector":"1"}},{"base_weights":[5.3114225E-3,1.1191001E0,-1.5580033E-1,-8.8340044E-2,1.4761589E0,1.475201E-2,1.5968655E-1],"categories":[],"categories_nodes":[],"categories_segments":[],"categories_sizes":[],"default_left":[0,0,0,0,0,0,0],"id":2,"left_children":[1,3,-1,-1,5,-1,-1],"loss_changes":[4.586166E1,1.2299562E1,0E0,0E0,1.9175396E0,0E0,0E0],"parents":[2147483647,0,0,1,1,4,4],"right_children":[2,4,-1,-1,6,-1,-1],"split_conditions":[2.3477985E-33,-6.0813963E-2,-1.5580033E-1,-8.8340044E-2,-3.7511773E-2,1.475201E-2,1.5968655E-1],"split_indices":[223,378,0,0,33,0,0],"split_type":[0,0,0,0,0,0,0],"sum_hessian":[2.4337723E1,1.4378128E1,9.959596E0,1.9526929E0,1.2425435E1,1.2199014E0,1.1205534E1],"tree_param":{"num_deleted":"0","num_feature":"384","num_nodes":"7","size_leaf_vector":"1"}},{"base_weights":[2.1389113E-3,-1.1465014E0,1.3357667E0,-1.4737222E-1,2.741725E-1,1.4727768E-1,6.549912E-3,9.609941E-2,-5.431336E-2],"categories":[],"categories_nodes":[],"categories_segments":[],"categories_sizes":[],"default_left":[0,0,0,0,0,0,0,0,0],"id":3,"left_children":[1,3,5,-1,7,-1,-1,-1,-1],"loss_changes":[3.9319725E1,6.8153305E0,1.9705715E0,0E0,2.4445572E0,0E0,0E0,0E0,0E0],"parents":[2147483647,0,0,1,1,2,2,4,4],"right_children":[2,4,6,-1,8,-1,-1,-1,-1],"split_conditions":[-3.5026448E-33,3.5606135E-2,7.022874E-2,-1.4737222E-1,-3.0452913E-2,1.4727768E-1,6.549912E-3,9.609941E-2,-5.431336E-2],"split_indices":[127,317,39,0,49,0,0,0,0],"split_type":[0,0,0,0,0,0,0,0,0],"sum_hessian":[2.3668247E1,1.279143E1,1.0876818E1,1.0366416E1,2.425014E0,9.673968E0,1.2028495E0,1.2221642E0,1.2028499E0],"tree_param":{"num_deleted":"0","num_feature":"384","num_nodes":"9","size_leaf_vector":"1"}},{"base_weights":[3.9329743E-3,9.835229E-1,-1.3845111E-1,1.374693E-1,-6.081393E-1,-1.0187789E-1,1.4541832E-2],"categories":[],"categories_nodes":[],"categories_segments":[],"categories_sizes":[],"default_left":[0,0,0,0,0,0,0],"id":4,"left_children":[1,3,-1,-1,5,-1,-1],"loss_changes":[3.3811222E1,9.909515E0,0E0,0E0,1.2523264E0,0E0,0E0],"parents":[2147483647,0,0,1,1,4,4],"right_children":[2,4,-1,-1,6,-1,-1],"split_conditions":[2.3477985E-33,4.084201E-2,-1.3845111E-1,1.374693E-1,-2.1054357E-2,-1.0187789E-1,1.4541832E-2],"split_indices":[223,321,0,0,34,0,0],"split_type":[0,0,0,0,0,0,0],"sum_hessian":[2.2858086E1,1.3573326E1,9.28476E0,1.1005024E1,2.5683017E0,1.4345868E0,1.1337149E0],"tree_param":{"num_deleted":"0","num_feature":"384","num_nodes":"7","size_leaf_vector":"1"}},{"base_weights":[-1.7685935E-4,-1.0290427E0,1.1944164E0,-1.3331117E-1,2.4720688E-1,1.3313983E-1,-1.5594378E-5,8.695218E-2,-4.9874116E-2],"categories":[],"categories_nodes":[],"categories_segments":[],"categories_sizes":[],"default_left":[0,0,0,0,0,0,0,0,0],"id":5,"left_children":[1,3,5,-1,7,-1,-1,-1,-1],"loss_changes":[2.94528E1,5.3257933E0,1.8147011E0,0E0,1.9752216E0,0E0,0E0,0E0,0E0],"parents":[2147483647,0,0,1,1,2,2,4,4],"right_children":[2,4,6,-1,8,-1,-1,-1,-1],"split_conditions":[-3.5026448E-33,3.5606135E-2,5.4429248E-2,-1.3331117E-1,2.6728395E-2,1.3313983E-1,-1.5594378E-5,8.695218E-2,-4.9874116E-2],"split_indices":[127,317,180,0,58,0,0,0,0],"split_type":[0,0,0,0,0,0,0,0,0],"sum_hessian":[2.196334E1,1.1874655E1,1.0088686E1,9.553872E0,2.320782E0,8.94807E0,1.1406164E0,1.174927E0,1.1458551E0],"tree_param":{"num_deleted":"0","num_feature":"384","num_nodes":"9","size_leaf_vector":"1"}},{"base_weights":[1.4328297E-3,8.797155E-1,-1.2619767E-1,1.2490427E0,-5.6514496E-1,1.3012506E-1,3.7986968E-2,-9.5018886E-2,1.5359509E-2],"categories":[],"categories_nodes":[],"categories_segments":[],"categories_sizes":[],"default_left":[0,0,0,0,0,0,0,0,0],"id":6,"left_children":[1,3,-1,5,7,-1,-1,-1,-1],"loss_changes":[2.5524632E1,7.9464912E0,0E0,1.0198593E-2,1.1009295E0,0E0,0E0,0E0,0E0],"parents":[2147483647,0,0,1,1,3,3,4,4],"right_children":[2,4,-1,6,8,-1,-1,-1,-1],"split_conditions":[2.3477985E-33,4.084201E-2,-1.2619767E-1,5.1123172E-2,9.17884E-3,1.3012506E-1,3.7986968E-2,-9.5018886E-2,1.5359509E-2],"split_indices":[223,321,0,13,212,0,0,0,0],"split_type":[0,0,0,0,0,0,0,0,0],"sum_hessian":[2.1002323E1,1.2568672E1,8.433651E0,1.0117914E1,2.4507582E0,9.075661E0,1.042253E0,1.3861492E0,1.064609E0],"tree_param":{"num_deleted":"0","num_feature":"384","num_nodes":"9","size_leaf_vector":"1"}},{"base_weights":[-4.1897732E-4,-9.412037E-1,1.0893358E0,-1.2294407E-1,2.2320925E-1,-5.4976214E-3,1.22903526E-1,-4.6245825E-2,7.9189576E-2],"categories":[],"categories_nodes":[],"categories_segments":[],"categories_sizes":[],"default_left":[0,0,0,0,0,0,0,0,0],"id":7,"left_children":[1,3,5,-1,7,-1,-1,-1,-1],"loss_changes":[2.2576921E1,4.2409544E0,1.6986332E0,0E0,1.6106187E0,0E0,0E0,0E0,0E0],"parents":[2147483647,0,0,1,1,2,2,4,4],"right_children":[2,4,6,-1,8,-1,-1,-1,-1],"split_conditions":[-3.5026448E-33,3.5606135E-2,-8.890825E-2,-1.2294407E-1,1.8084439E-2,-5.4976214E-3,1.22903526E-1,-4.6245825E-2,7.9189576E-2],"split_indices":[127,317,308,0,84,0,0,0,0],"split_type":[0,0,0,0,0,0,0,0,0],"sum_hessian":[2.0021378E1,1.0818278E1,9.203098E0,8.626935E0,2.1913435E0,1.0672739E0,8.135825E0,1.078177E0,1.1131665E0],"tree_param":{"num_deleted":"0","num_feature":"384","num_nodes":"9","size_leaf_vector":"1"}},{"base_weights":[9.05347E-4,8.006278E-1,-1.1698391E-1,1.1560979E-1,-5.2855057E-1,-8.793933E-2,1.3782787E-2],"categories":[],"categories_nodes":[],"categories_segments":[],"categories_sizes":[],"default_left":[0,0,0,0,0,0,0],"id":8,"left_children":[1,3,-1,-1,5,-1,-1],"loss_changes":[1.9683405E1,6.512454E0,0E0,0E0,8.9781016E-1,0E0,0E0],"parents":[2147483647,0,0,1,1,4,4],"right_children":[2,4,-1,-1,6,-1,-1],"split_conditions":[2.3477985E-33,4.084201E-2,-1.1698391E-1,1.1560979E-1,5.5418233E-3,-8.793933E-2,1.3782787E-2],"split_indices":[223,321,0,0,1,0,0],"split_type":[0,0,0,0,0,0,0],"sum_hessian":[1.9022842E1,1.1490172E1,7.5326705E0,9.168422E0,2.32175E0,1.3115627E0,1.0101874E0],"tree_param":{"num_deleted":"0","num_feature":"384","num_nodes":"7","size_leaf_vector":"1"}},{"base_weights":[-3.084437E-3,-8.732207E-1,1.0042416E0,-1.1513125E-1,2.0483305E-1,1.1475199E-1,-9.027905E-3,7.21121E-2,-4.1875746E-2],"categories":[],"categories_nodes":[],"categories_segments":[],"categories_sizes":[],"default_left":[0,0,0,0,0,0,0,0,0],"id":9,"left_children":[1,3,5,-1,7,-1,-1,-1,-1],"loss_changes":[1.7559145E1,3.457614E0,1.5598383E0,0E0,1.2847815E0,0E0,0E0,0E0,0E0],"parents":[2147483647,0,0,1,1,2,2,4,4],"right_children":[2,4,6,-1,8,-1,-1,-1,-1],"split_conditions":[-3.5026448E-33,3.5606135E-2,5.6907274E-2,-1.1513125E-1,-4.3063056E-2,1.1475199E-1,-9.027905E-3,7.21121E-2,-4.1875746E-2],"split_indices":[127,317,230,0,0,0,0,0,0],"split_type":[0,0,0,0,0,0,0,0,0],"sum_hessian":[1.8032532E1,9.746531E0,8.286001E0,7.693883E0,2.052648E0,7.2840586E0,1.0019424E0,1.037375E0,1.015273E0],"tree_param":{"num_deleted":"0","num_feature":"384","num_nodes":"9","size_leaf_vector":"1"}},{"base_weights":[-1.8292969E-3,-8.3703643E-1,9.643418E-1,-1.1141708E-1,1.9731063E-1,-8.839337E-3,1.1100718E-1,6.956989E-2,-4.000206E-2],"categories":[],"categories_nodes":[],"categories_segments":[],"categories_sizes":[],"default_left":[0,0,0,0,0,0,0,0,0],"id":10,"left_children":[1,3,5,-1,7,-1,-1,-1,-1],"loss_changes":[1.5383045E1,3.1503935E0,1.4542322E0,0E0,1.1743466E0,0E0,0E0,0E0,0E0],"parents":[2147483647,0,0,1,1,2,2,4,4],"right_children":[2,4,6,-1,8,-1,-1,-1,-1],"split_conditions":[-3.5026448E-33,3.5606135E-2,-2.7708096E-2,-1.1141708E-1,-4.3063056E-2,-8.839337E-3,1.1100718E-1,6.956989E-2,-4.000206E-2],"split_indices":[127,317,33,0,0,0,0,0,0],"split_type":[0,0,0,0,0,0,0,0,0],"sum_hessian":[1.706283E1,9.223353E0,7.839477E0,7.2134647E0,2.0098891E0,1.0011003E0,6.8383765E0,1.005916E0,1.003973E0],"tree_param":{"num_deleted":"0","num_feature":"384","num_nodes":"9","size_leaf_vector":"1"}},{"base_weights":[-6.025299E-4,7.100434E-1,-1.0670785E-1,1.0521801E-1,-4.9135783E-1,1.5223641E-3,-7.632356E-2],"categories":[],"categories_nodes":[],"categories_segments":[],"categories_sizes":[],"default_left":[0,0,0,0,0,0,0],"id":11,"left_children":[1,3,-1,-1,5,-1,-1],"loss_changes":[1.3735469E1,4.9877553E0,0E0,0E0,4.375503E-1,0E0,0E0],"parents":[2147483647,0,0,1,1,4,4],"right_children":[2,4,-1,-1,6,-1,-1],"split_conditions":[2.3477985E-33,4.084201E-2,-1.0670785E-1,1.0521801E-1,2.9387514E-3,1.5223641E-3,-7.632356E-2],"split_indices":[223,321,0,0,48,0,0],"split_type":[0,0,0,0,0,0,0],"sum_hessian":[1.6123663E1,9.876606E0,6.247058E0,7.784057E0,2.0925486E0,1.0605198E0,1.0320288E0],"tree_param":{"num_deleted":"0","num_feature":"384","num_nodes":"7","size_leaf_vector":"1"}},{"base_weights":[-5.2019027E-3,-7.8690577E-1,8.988902E-1,-1.0578169E-1,1.827554E-2,-5.272105E-3,1.0501025E-1],"categories":[],"categories_nodes":[],"categories_segments":[],"categories_sizes":[],"default_left":[0,0,0,0,0,0,0],"id":12,"left_children":[1,3,5,-1,-1,-1,-1],"loss_changes":[1.2176876E1,2.6197567E0,1.2053962E0,0E0,0E0,0E0,0E0],"parents":[2147483647,0,0,1,1,2,2],"right_children":[2,4,6,-1,-1,-1,-1],"split_conditions":[-3.5026448E-33,3.5606135E-2,-5.8564134E-2,-1.0578169E-1,1.827554E-2,-5.272105E-3,1.0501025E-1],"split_indices":[127,317,309,0,0,0,0],"split_type":[0,0,0,0,0,0,0],"sum_hessian":[1.5228966E1,8.236806E0,6.99216E0,6.3670254E0,1.8697805E0,1.0480294E0,5.9441304E0],"tree_param":{"num_deleted":"0","num_feature":"384","num_nodes":"7","size_leaf_vector":"1"}},{"base_weights":[-4.2635486E-3,6.567254E-1,-1.0142038E-1,-6.389489E-2,9.4890237E-1,1.0621577E-1,8.789646E-3],"categories":[],"categories_nodes":[],"categories_segments":[],"categories_sizes":[],"default_left":[0,0,0,0,0,0,0],"id":13,"left_children":[1,3,-1,-1,5,-1,-1],"loss_changes":[1.0954332E1,4.362485E0,0E0,0E0,7.3538446E-1,0E0,0E0],"parents":[2147483647,0,0,1,1,4,4],"right_children":[2,4,-1,-1,6,-1,-1],"split_conditions":[2.3477985E-33,-6.0813963E-2,-1.0142038E-1,-6.389489E-2,4.9836177E-2,1.0621577E-1,8.789646E-3],"split_indices":[223,378,0,0,204,0,0],"split_type":[0,0,0,0,0,0,0],"sum_hessian":[1.4411783E1,8.922134E0,5.4896493E0,1.4233512E0,7.498783E0,6.4206038E0,1.0781794E0],"tree_param":{"num_deleted":"0","num_feature":"384","num_nodes":"7","size_leaf_vector":"1"}},{"base_weights":[-7.3052286E-3,6.276905E-1,-9.8731056E-2,9.6881635E-2,-4.7376554E-2],"categories":[],"categories_nodes":[],"categories_segments":[],"categories_sizes":[],"default_left":[0,0,0,0,0],"id":14,"left_children":[1,3,-1,-1,-1],"loss_changes":[9.693154E0,4.0130653E0,0E0,0E0,0E0],"parents":[2147483647,0,0,1,1],"right_children":[2,4,-1,-1,-1],"split_conditions":[2.3477985E-33,4.084201E-2,-9.8731056E-2,9.6881635E-2,-4.7376554E-2],"split_indices":[223,321,0,0,0],"split_type":[0,0,0,0,0],"sum_hessian":[1.3580494E1,8.458985E0,5.121508E0,6.550644E0,1.9083419E0],"tree_param":{"num_deleted":"0","num_feature":"384","num_nodes":"5","size_leaf_vector":"1"}},{"base_weights":[-1.03798015E-2,-6.72165E-1,8.87697E-2,-9.763855E-2,2.4390941E-2],"categories":[],"categories_nodes":[],"categories_segments":[],"categories_sizes":[],"default_left":[0,0,0,0,0],"id":15,"left_children":[1,3,-1,-1,-1],"loss_changes":[8.809537E0,2.613975E0,0E0,0E0,0E0],"parents":[2147483647,0,0,1,1],"right_children":[2,4,-1,-1,-1],"split_conditions":[-3.387588E-33,3.5606135E-2,8.87697E-2,-9.763855E-2,2.4390941E-2],"split_indices":[127,317,0,0,0],"split_type":[0,0,0,0,0],"sum_hessian":[1.2818593E1,7.52502E0,5.2935734E0,5.599603E0,1.925417E0],"tree_param":{"num_deleted":"0","num_feature":"384","num_nodes":"5","size_leaf_vector":"1"}},{"base_weights":[-8.905072E-3,5.853807E-1,-9.441679E-2,-6.0107857E-2,8.778386E-1,9.910012E-2,8.089637E-3],"categories":[],"categories_nodes":[],"categories_segments":[],"categories_sizes":[],"default_left":[0,0,0,0,0,0,0],"id":16,"left_children":[1,3,-1,-1,5,-1,-1],"loss_changes":[7.8621674E0,3.532094E0,0E0,0E0,5.829358E-1,0E0,0E0],"parents":[2147483647,0,0,1,1,4,4],"right_children":[2,4,-1,-1,6,-1,-1],"split_conditions":[2.3477985E-33,-6.0813963E-2,-9.441679E-2,-6.0107857E-2,2.271883E-2,9.910012E-2,8.089637E-3],"split_indices":[223,378,0,0,57,0,0],"split_type":[0,0,0,0,0,0,0],"sum_hessian":[1.2150943E1,7.658604E0,4.492339E0,1.3058194E0,6.352785E0,5.3496513E0,1.0031334E0],"tree_param":{"num_deleted":"0","num_feature":"384","num_nodes":"7","size_leaf_vector":"1"}},{"base_weights":[-1.2047299E-2,-6.3484657E-1,8.358868E-2,-9.690042E-2,1.6249959E-1,6.502717E-2,-4.4033464E-2],"categories":[],"categories_nodes":[],"categories_segments":[],"categories_sizes":[],"default_left":[0,0,0,0,0,0,0],"id":17,"left_children":[1,3,-1,-1,5,-1,-1],"loss_changes":[7.103291E0,2.22075E0,0E0,0E0,1.2106216E0,0E0,0E0],"parents":[2147483647,0,0,1,1,4,4],"right_children":[2,4,-1,-1,6,-1,-1],"split_conditions":[-3.387588E-33,4.2655982E-2,8.358868E-2,-9.690042E-2,-3.391031E-2,6.502717E-2,-4.4033464E-2],"split_indices":[127,381,0,0,217,0,0],"split_type":[0,0,0,0,0,0,0],"sum_hessian":[1.1445978E1,6.74393E0,4.702049E0,4.6005936E0,2.1433363E0,1.1412358E0,1.0021003E0],"tree_param":{"num_deleted":"0","num_feature":"384","num_nodes":"7","size_leaf_vector":"1"}},{"base_weights":[-1.1022778E-2,5.4385674E-1,-8.991481E-2,-5.692447E-2,8.337954E-1,9.482407E-2,9.473241E-3],"categories":[],"categories_nodes":[],"categories_segments":[],"categories_sizes":[],"default_left":[0,0,0,0,0,0,0],"id":18,"left_children":[1,3,-1,-1,5,-1,-1],"loss_changes":[6.303546E0,3.019363E0,0E0,0E0,4.735961E-1,0E0,0E0],"parents":[2147483647,0,0,1,1,4,4],"right_children":[2,4,-1,-1,6,-1,-1],"split_conditions":[2.3477985E-33,-6.0813963E-2,-8.991481E-2,-5.692447E-2,5.316801E-2,9.482407E-2,9.473241E-3],"split_indices":[223,378,0,0,96,0,0],"split_type":[0,0,0,0,0,0,0],"sum_hessian":[1.0798921E1,6.884983E0,3.9139378E0,1.2237118E0,5.661271E0,4.6570826E0,1.0041884E0],"tree_param":{"num_deleted":"0","num_feature":"384","num_nodes":"7","size_leaf_vector":"1"}},{"base_weights":[-1.4057519E-2,-6.045407E-1,7.865827E-2,-8.956149E-2,2.171631E-2],"categories":[],"categories_nodes":[],"categories_segments":[],"categories_sizes":[],"default_left":[0,0,0,0,0],"id":19,"left_children":[1,3,-1,-1,-1],"loss_changes":[5.762045E0,1.8690064E0,0E0,0E0,0E0],"parents":[2147483647,0,0,1,1],"right_children":[2,4,-1,-1,-1],"split_conditions":[-3.387588E-33,3.5606135E-2,7.865827E-2,-8.956149E-2,2.171631E-2],"split_indices":[127,317,0,0,0],"split_type":[0,0,0,0,0],"sum_hessian":[1.0182148E1,6.0011473E0,4.1810007E0,4.36498E0,1.6361668E0],"tree_param":{"num_deleted":"0","num_feature":"384","num_nodes":"5","size_leaf_vector":"1"}},{"base_weights":[-1.2535258E-2,5.1048315E-1,-8.621388E-2,8.49056E-2,-4.4036474E-2],"categories":[],"categories_nodes":[],"categories_segments":[],"categories_sizes":[],"default_left":[0,0,0,0,0],"id":20,"left_children":[1,3,-1,-1,-1],"loss_changes":[5.1812334E0,2.7021644E0,0E0,0E0,0E0],"parents":[2147483647,0,0,1,1],"right_children":[2,4,-1,-1,-1],"split_conditions":[2.3477985E-33,4.084201E-2,-8.621388E-2,8.49056E-2,-4.4036474E-2],"split_indices":[223,321,0,0,0],"split_type":[0,0,0,0,0],"sum_hessian":[9.669602E0,6.2321963E0,3.4374065E0,4.6747055E0,1.5574905E0],"tree_param":{"num_deleted":"0","num_feature":"384","num_nodes":"5","size_leaf_vector":"1"}},{"base_weights":[-1.6185528E-2,8.01027E-2,-5.3967685E-1,-8.221568E-1,4.2229574E-2,-9.253837E-2,-1.7900744E-2],"categories":[],"categories_nodes":[],"categories_segments":[],"categories_sizes":[],"default_left":[0,0,0,0,0,0,0],"id":21,"left_children":[1,-1,3,5,-1,-1,-1],"loss_changes":[4.771086E0,0E0,2.1894217E0,2.048006E-1,0E0,0E0,0E0],"parents":[2147483647,0,0,2,2,3,3],"right_children":[2,-1,4,6,-1,-1,-1],"split_conditions":[8.917359E-34,8.01027E-2,4.7727145E-2,1.4351471E-2,4.2229574E-2,-9.253837E-2,-1.7900744E-2],"split_indices":[223,0,148,261,0,0,0],"split_type":[0,0,0,0,0,0,0],"sum_hessian":[9.1420145E0,3.362584E0,5.77943E0,4.5799007E0,1.1995294E0,3.568342E0,1.0115585E0],"tree_param":{"num_deleted":"0","num_feature":"384","num_nodes":"7","size_leaf_vector":"1"}},{"base_weights":[-1.4272082E-2,-6.1020505E-1,6.5648055E-1,1.2931937E-2,-8.621051E-2,-2.6614927E-3,8.323445E-2],"categories":[],"categories_nodes":[],"categories_segments":[],"categories_sizes":[],"default_left":[0,0,0,0,0,0,0],"id":22,"left_children":[1,3,5,-1,-1,-1,-1],"loss_changes":[4.2720037E0,1.1634307E0,6.27414E-1,0E0,0E0,0E0,0E0],"parents":[2147483647,0,0,1,1,2,2],"right_children":[2,4,6,-1,-1,-1,-1],"split_conditions":[-3.5026448E-33,-3.621535E-2,-5.9697352E-2,1.2931937E-2,-8.621051E-2,-2.6614927E-3,8.323445E-2],"split_indices":[127,0,298,0,0,0,0],"split_type":[0,0,0,0,0,0,0],"sum_hessian":[8.685231E0,4.6469216E0,4.038309E0,1.3043256E0,3.3425963E0,1.0005615E0,3.0377474E0],"tree_param":{"num_deleted":"0","num_feature":"384","num_nodes":"7","size_leaf_vector":"1"}},{"base_weights":[-1.2781721E-2,7.610167E-2,-5.035663E-1,-7.8368306E-1,4.0495243E-2,-8.852676E-2,-1.8262563E-2],"categories":[],"categories_nodes":[],"categories_segments":[],"categories_sizes":[],"default_left":[0,0,0,0,0,0,0],"id":23,"left_children":[1,-1,3,5,-1,-1,-1],"loss_changes":[3.9010398E0,0E0,1.9129792E0,1.5173745E-1,0E0,0E0,0E0],"parents":[2147483647,0,0,2,2,3,3],"right_children":[2,-1,4,6,-1,-1,-1],"split_conditions":[8.917359E-34,7.610167E-2,4.7727145E-2,2.462774E-2,4.0495243E-2,-8.852676E-2,-1.8262563E-2],"split_indices":[223,0,148,74,0,0,0],"split_type":[0,0,0,0,0,0,0],"sum_hessian":[8.263061E0,2.9932008E0,5.26986E0,4.132976E0,1.1368837E0,3.1309626E0,1.0020137E0],"tree_param":{"num_deleted":"0","num_feature":"384","num_nodes":"7","size_leaf_vector":"1"}},{"base_weights":[-1.11387E-2,4.5101148E-1,-7.8792565E-2,7.8852735E-2,-4.1223522E-2],"categories":[],"categories_nodes":[],"categories_segments":[],"categories_sizes":[],"default_left":[0,0,0,0,0],"id":24,"left_children":[1,3,-1,-1,-1],"loss_changes":[3.5380096E0,2.12987E0,0E0,0E0,0E0],"parents":[2147483647,0,0,1,1],"right_children":[2,4,-1,-1,-1],"split_conditions":[2.3477985E-33,4.084201E-2,-7.8792565E-2,7.8852735E-2,-4.1223522E-2],"split_indices":[223,321,0,0,0],"split_type":[0,0,0,0,0],"sum_hessian":[7.8655024E0,5.1944485E0,2.6710541E0,3.7965953E0,1.397853E0],"tree_param":{"num_deleted":"0","num_feature":"384","num_nodes":"5","size_leaf_vector":"1"}},{"base_weights":[-1.5201826E-2,-5.1589346E-1,6.718647E-2,-8.046653E-2,2.2579968E-2],"categories":[],"categories_nodes":[],"categories_segments":[],"categories_sizes":[],"default_left":[0,0,0,0,0],"id":25,"left_children":[1,3,-1,-1,-1],"loss_changes":[3.2553964E0,1.3504384E0,0E0,0E0,0E0],"parents":[2147483647,0,0,1,1],"right_children":[2,4,-1,-1,-1],"split_conditions":[-3.387588E-33,3.5606135E-2,6.718647E-2,-8.046653E-2,2.2579968E-2],"split_indices":[127,317,0,0,0],"split_type":[0,0,0,0,0],"sum_hessian":[7.455565E0,4.456835E0,2.9987302E0,3.1467657E0,1.310069E0],"tree_param":{"num_deleted":"0","num_feature":"384","num_nodes":"5","size_leaf_vector":"1"}},{"base_weights":[-1.3433372E-2,7.092213E-2,-4.7075695E-1,2.0426989E-2,-8.442459E-2],"categories":[],"categories_nodes":[],"categories_segments":[],"categories_sizes":[],"default_left":[0,0,0,0,0],"id":26,"left_children":[1,-1,3,-1,-1],"loss_changes":[3.0140471E0,0E0,1.5761603E0,0E0,0E0],"parents":[2147483647,0,0,2,2],"right_children":[2,-1,4,-1,-1],"split_conditions":[8.917359E-34,7.092213E-2,-1.8707232E-3,2.0426989E-2,-8.442459E-2],"split_indices":[223,0,48,0,0],"split_type":[0,0,0,0,0],"sum_hessian":[7.109777E0,2.5420563E0,4.567721E0,1.7884445E0,2.7792764E0],"tree_param":{"num_deleted":"0","num_feature":"384","num_nodes":"5","size_leaf_vector":"1"}},{"base_weights":[-1.201593E-2,4.1418788E-1,-7.3955104E-2,-3.5105627E-2,7.715237E-2],"categories":[],"categories_nodes":[],"categories_segments":[],"categories_sizes":[],"default_left":[0,0,0,0,0],"id":27,"left_children":[1,3,-1,-1,-1],"loss_changes":[2.7221293E0,1.7895617E0,0E0,0E0,0E0],"parents":[2147483647,0,0,1,1],"right_children":[2,4,-1,-1,-1],"split_conditions":[2.3477985E-33,-4.1559484E-2,-7.3955104E-2,-3.5105627E-2,7.715237E-2],"split_indices":[223,378,0,0,0],"split_type":[0,0,0,0,0],"sum_hessian":[6.79099E0,4.5539165E0,2.2370737E0,1.4551809E0,3.0987356E0],"tree_param":{"num_deleted":"0","num_feature":"384","num_nodes":"5","size_leaf_vector":"1"}},{"base_weights":[-1.5347243E-2,5.3368187E-1,-5.6045425E-1,7.439795E-2,-6.5852813E-3,2.3331023E-3,-7.8190856E-2],"categories":[],"categories_nodes":[],"categories_segments":[],"categories_sizes":[],"default_left":[0,0,0,0,0,0,0],"id":28,"left_children":[1,3,5,-1,-1,-1,-1],"loss_changes":[2.5301845E0,5.8184683E-1,5.649164E-1,0E0,0E0,0E0,0E0],"parents":[2147483647,0,0,1,1,2,2],"right_children":[2,4,6,-1,-1,-1,-1],"split_conditions":[3.0629549E-3,1.6299395E-33,3.6658935E-2,7.439795E-2,-6.5852813E-3,2.3331023E-3,-7.8190856E-2],"split_indices":[72,223,99,0,0,0,0],"split_type":[0,0,0,0,0,0,0],"sum_hessian":[6.454835E0,3.2262902E0,3.2285447E0,2.2101219E0,1.0161684E0,1.1339462E0,2.0945985E0],"tree_param":{"num_deleted":"0","num_feature":"384","num_nodes":"7","size_leaf_vector":"1"}},{"base_weights":[-1.537392E-2,6.572627E-2,-4.340304E-1,1.87458E-2,-7.933368E-2],"categories":[],"categories_nodes":[],"categories_segments":[],"categories_sizes":[],"default_left":[0,0,0,0,0],"id":29,"left_children":[1,-1,3,-1,-1],"loss_changes":[2.3118849E0,0E0,1.2737433E0,0E0,0E0],"parents":[2147483647,0,0,2,2],"right_children":[2,-1,4,-1,-1],"split_conditions":[8.917359E-34,6.572627E-2,-1.8707232E-3,1.87458E-2,-7.933368E-2],"split_indices":[223,0,48,0,0],"split_type":[0,0,0,0,0],"sum_hessian":[6.196685E0,2.15861E0,4.038075E0,1.6545298E0,2.383545E0],"tree_param":{"num_deleted":"0","num_feature":"384","num_nodes":"5","size_leaf_vector":"1"}},{"base_weights":[-1.393092E-2,-5.790114E-1,4.706527E-1,-1.3405736E-2,-6.9823824E-2,7.049983E-2,-1.4863829E-2],"categories":[],"categories_nodes":[],"categories_segments":[],"categories_sizes":[],"default_left":[0,0,0,0,0,0,0],"id":30,"left_children":[1,3,5,-1,-1,-1,-1],"loss_changes":[2.1715782E0,1.0003424E-1,7.266861E-1,0E0,0E0,0E0,0E0],"parents":[2147483647,0,0,1,1,2,2],"right_children":[2,4,6,-1,-1,-1,-1],"split_conditions":[-7.6706703E-3,-1.7128254E-8,-1.2767035E-2,-1.3405736E-2,-6.9823824E-2,7.049983E-2,-1.4863829E-2],"split_indices":[261,319,0,0,0,0,0],"split_type":[0,0,0,0,0,0,0],"sum_hessian":[5.935229E0,2.6500733E0,3.2851553E0,1.0089748E0,1.6410985E0,2.2828918E0,1.0022635E0],"tree_param":{"num_deleted":"0","num_feature":"384","num_nodes":"7","size_leaf_vector":"1"}},{"base_weights":[-1.687518E-2,3.7699118E-1,-6.852427E-2,7.0414655E-2,-3.7586123E-2],"categories":[],"categories_nodes":[],"categories_segments":[],"categories_sizes":[],"default_left":[0,0,0,0,0],"id":31,"left_children":[1,3,-1,-1,-1],"loss_changes":[2.0272944E0,1.4649396E0,0E0,0E0,0E0],"parents":[2147483647,0,0,1,1],"right_children":[2,4,-1,-1,-1],"split_conditions":[2.3477985E-33,4.084201E-2,-6.852427E-2,7.0414655E-2,-3.7586123E-2],"split_indices":[223,321,0,0,0],"split_type":[0,0,0,0,0],"sum_hessian":[5.719775E0,3.8732417E0,1.8465337E0,2.745059E0,1.1281826E0],"tree_param":{"num_deleted":"0","num_feature":"384","num_nodes":"5","size_leaf_vector":"1"}},{"base_weights":[-2.1188304E-2,4.901173E-1,-5.206891E-1,6.703465E-2,2.2640864E-4,1.4346784E-4,-7.1631126E-2],"categories":[],"categories_nodes":[],"categories_segments":[],"categories_sizes":[],"default_left":[0,0,0,0,0,0,0],"id":32,"left_children":[1,3,5,-1,-1,-1,-1],"loss_changes":[1.9015994E0,3.2386684E-1,3.8361287E-1,0E0,0E0,0E0,0E0],"parents":[2147483647,0,0,1,1,2,2],"right_children":[2,4,6,-1,-1,-1,-1],"split_conditions":[3.0629549E-3,1.288391E-33,3.6819506E-2,6.703465E-2,2.2640864E-4,1.4346784E-4,-7.1631126E-2],"split_indices":[72,223,99,0,0,0,0],"split_type":[0,0,0,0,0,0,0],"sum_hessian":[5.4464226E0,2.700691E0,2.7457314E0,1.6989636E0,1.0017275E0,1.018903E0,1.7268283E0],"tree_param":{"num_deleted":"0","num_feature":"384","num_nodes":"7","size_leaf_vector":"1"}},{"base_weights":[-2.0350996E-2,4.555681E-1,-5.294135E-1,-3.7027427E-3,6.6493645E-2,-6.783993E-2,-8.036966E-3],"categories":[],"categories_nodes":[],"categories_segments":[],"categories_sizes":[],"default_left":[0,0,0,0,0,0,0],"id":33,"left_children":[1,3,5,-1,-1,-1,-1],"loss_changes":[1.7563579E0,4.134056E-1,1.7858064E-1,0E0,0E0,0E0,0E0],"parents":[2147483647,0,0,1,1,2,2],"right_children":[2,4,6,-1,-1,-1,-1],"split_conditions":[3.9524764E-2,-3.8194923E-33,-2.1778276E-2,-3.7027427E-3,6.6493645E-2,-6.783993E-2,-8.036966E-3],"split_indices":[267,127,378,0,0,0,0],"split_type":[0,0,0,0,0,0,0],"sum_hessian":[5.254005E0,2.7697082E0,2.484297E0,1.071608E0,1.6981001E0,1.4818714E0,1.0024258E0],"tree_param":{"num_deleted":"0","num_feature":"384","num_nodes":"7","size_leaf_vector":"1"}},{"base_weights":[-2.0886596E-2,3.575542E-1,-6.508097E-2,6.682383E-2,-3.4391187E-2],"categories":[],"categories_nodes":[],"categories_segments":[],"categories_sizes":[],"default_left":[0,0,0,0,0],"id":34,"left_children":[1,3,-1,-1,-1],"loss_changes":[1.6815645E0,1.1979157E0,0E0,0E0,0E0],"parents":[2147483647,0,0,1,1],"right_children":[2,4,-1,-1,-1],"split_conditions":[2.3477985E-33,4.084201E-2,-6.508097E-2,6.682383E-2,-3.4391187E-2],"split_indices":[223,321,0,0,0],"split_type":[0,0,0,0,0],"sum_hessian":[5.077743E0,3.4421666E0,1.6355765E0,2.4184067E0,1.0237597E0],"tree_param":{"num_deleted":"0","num_feature":"384","num_nodes":"5","size_leaf_vector":"1"}},{"base_weights":[-2.4978053E-2,-5.334137E-2,4.247894E-1,6.1544508E-2,-4.0668505E-3],"categories":[],"categories_nodes":[],"categories_segments":[],"categories_sizes":[],"default_left":[0,0,0,0,0],"id":35,"left_children":[1,-1,3,-1,-1],"loss_changes":[1.5633683E0,0E0,3.4969133E-1,0E0,0E0],"parents":[2147483647,0,0,2,2],"right_children":[2,-1,4,-1,-1],"split_conditions":[-7.6706703E-3,-5.334137E-2,2.6440289E-2,6.1544508E-2,-4.0668505E-3],"split_indices":[261,0,267,0,0],"split_type":[0,0,0,0,0],"sum_hessian":[4.8456917E0,2.1872065E0,2.658485E0,1.6573739E0,1.001111E0],"tree_param":{"num_deleted":"0","num_feature":"384","num_nodes":"5","size_leaf_vector":"1"}},{"base_weights":[-2.2205997E-2,5.707441E-2,-3.9110288E-1,1.5588209E-2,-7.027556E-2],"categories":[],"categories_nodes":[],"categories_segments":[],"categories_sizes":[],"default_left":[0,0,0,0,0],"id":36,"left_children":[1,-1,3,-1,-1],"loss_changes":[1.469923E0,0E0,8.0966157E-1,0E0,0E0],"parents":[2147483647,0,0,2,2],"right_children":[2,-1,4,-1,-1],"split_conditions":[8.917359E-34,5.707441E-2,-1.8707232E-3,1.5588209E-2,-7.027556E-2],"split_indices":[223,0,48,0,0],"split_type":[0,0,0,0,0],"sum_hessian":[4.699543E0,1.5925604E0,3.1069822E0,1.3091319E0,1.7978504E0],"tree_param":{"num_deleted":"0","num_feature":"384","num_nodes":"5","size_leaf_vector":"1"}},{"base_weights":[-2.0485517E-2,4.4786465E-1,-4.747161E-1,7.365101E-3,5.8520973E-2,-7.937496E-3,-6.1372817E-2],"categories":[],"categories_nodes":[],"categories_segments":[],"categories_sizes":[],"default_left":[0,0,0,0,0,0,0],"id":37,"left_children":[1,3,5,-1,-1,-1,-1],"loss_changes":[1.3870443E0,1.2304181E-1,1.3198274E-1,0E0,0E0,0E0,0E0],"parents":[2147483647,0,0,1,1,2,2],"right_children":[2,4,6,-1,-1,-1,-1],"split_conditions":[3.0629549E-3,1.1899036E-2,-3.4932345E-3,7.365101E-3,5.8520973E-2,-7.937496E-3,-6.1372817E-2],"split_indices":[72,280,143,0,0,0,0],"split_type":[0,0,0,0,0,0,0],"sum_hessian":[4.5205483E0,2.232582E0,2.2879663E0,1.0118686E0,1.2207135E0,1.003909E0,1.2840573E0],"tree_param":{"num_deleted":"0","num_feature":"384","num_nodes":"7","size_leaf_vector":"1"}},{"base_weights":[-1.954616E-2,-4.417545E-1,4.715572E-2,-6.231475E-2,-4.837678E-4],"categories":[],"categories_nodes":[],"categories_segments":[],"categories_sizes":[],"default_left":[0,0,0,0,0],"id":38,"left_children":[1,3,-1,-1,-1],"loss_changes":[1.3264146E0,2.6770788E-1,0E0,0E0,0E0],"parents":[2147483647,0,0,1,1],"right_children":[2,4,-1,-1,-1],"split_conditions":[-3.5026448E-33,-9.766063E-3,4.715572E-2,-6.231475E-2,-4.837678E-4],"split_indices":[127,261,0,0,0],"split_type":[0,0,0,0,0],"sum_hessian":[4.392396E0,2.4158993E0,1.9764966E0,1.405956E0,1.0099432E0],"tree_param":{"num_deleted":"0","num_feature":"384","num_nodes":"5","size_leaf_vector":"1"}},{"base_weights":[-2.119627E-2,4.1853094E-1,-4.745385E-1,3.7026287E-3,5.7701703E-2,-1.3979362E-2,-5.7035714E-2],"categories":[],"categories_nodes":[],"categories_segments":[],"categories_sizes":[],"default_left":[0,0,0,0,0,0,0],"id":39,"left_children":[1,3,5,-1,-1,-1,-1],"loss_changes":[1.2461998E0,1.7205524E-1,1.8292904E-2,0E0,0E0,0E0,0E0],"parents":[2147483647,0,0,1,1,2,2],"right_children":[2,4,6,-1,-1,-1,-1],"split_conditions":[3.9524764E-2,9.436224E-3,-1.594215E-8,3.7026287E-3,5.7701703E-2,-1.3979362E-2,-5.7035714E-2],"split_indices":[267,280,319,0,0,0,0],"split_type":[0,0,0,0,0,0,0],"sum_hessian":[4.2551146E0,2.1989717E0,2.0561428E0,1.0074595E0,1.1915122E0,1.0047973E0,1.0513453E0],"tree_param":{"num_deleted":"0","num_feature":"384","num_nodes":"7","size_leaf_vector":"1"}},{"base_weights":[-2.1287289E-2,3.1944057E-1,-5.8489114E-2,-2.8036088E-2,6.293649E-2],"categories":[],"categories_nodes":[],"categories_segments":[],"categories_sizes":[],"default_left":[0,0,0,0,0],"id":40,"left_children":[1,3,-1,-1,-1],"loss_changes":[1.1747904E0,8.927026E-1,0E0,0E0,0E0],"parents":[2147483647,0,0,1,1],"right_children":[2,4,-1,-1,-1],"split_conditions":[2.3477985E-33,-4.1559484E-2,-5.8489114E-2,-2.8036088E-2,6.293649E-2],"split_indices":[223,378,0,0,0],"split_type":[0,0,0,0,0],"sum_hessian":[4.144633E0,2.8530397E0,1.2915932E0,1.0044674E0,1.8485725E0],"tree_param":{"num_deleted":"0","num_feature":"384","num_nodes":"5","size_leaf_vector":"1"}},{"base_weights":[-2.4392026E-2,4.105914E-2,-4.4393262E-1,-5.5185508E-2,-1.1545579E-2],"categories":[],"categories_nodes":[],"categories_segments":[],"categories_sizes":[],"default_left":[0,0,0,0,0],"id":41,"left_children":[1,-1,3,-1,-1],"loss_changes":[1.0897452E0,0E0,4.3051362E-2,0E0,0E0],"parents":[2147483647,0,0,2,2],"right_children":[2,-1,4,-1,-1],"split_conditions":[3.0629549E-3,4.105914E-2,-2.896757E-2,-5.5185508E-2,-1.1545579E-2],"split_indices":[72,0,309,0,0],"split_type":[0,0,0,0,0],"sum_hessian":[3.972625E0,1.960889E0,2.0117362E0,1.0023627E0,1.0093733E0],"tree_param":{"num_deleted":"0","num_feature":"384","num_nodes":"5","size_leaf_vector":"1"}},{"base_weights":[-2.768867E-2,5.0673712E-2,-3.6052746E-1,1.34304585E-2,-6.406414E-2],"categories":[],"categories_nodes":[],"categories_segments":[],"categories_sizes":[],"default_left":[0,0,0,0,0],"id":42,"left_children":[1,-1,3,-1,-1],"loss_changes":[1.0514375E0,0E0,5.8418614E-1,0E0,0E0],"parents":[2147483647,0,0,2,2],"right_children":[2,-1,4,-1,-1],"split_conditions":[8.917359E-34,5.0673712E-2,-1.8707232E-3,1.34304585E-2,-6.406414E-2],"split_indices":[223,0,48,0,0],"split_type":[0,0,0,0,0],"sum_hessian":[3.8839471E0,1.2900677E0,2.5938795E0,1.1257441E0,1.4681352E0],"tree_param":{"num_deleted":"0","num_feature":"384","num_nodes":"5","size_leaf_vector":"1"}},{"base_weights":[-2.5871005E-2,-4.6727646E-2,3.702442E-1,1.2316119E-3,5.40698E-2],"categories":[],"categories_nodes":[],"categories_segments":[],"categories_sizes":[],"default_left":[0,0,0,0,0],"id":43,"left_children":[1,-1,3,-1,-1],"loss_changes":[1.0035603E0,0E0,1.8012032E-1,0E0,0E0],"parents":[2147483647,0,0,2,2],"right_children":[2,-1,4,-1,-1],"split_conditions":[-7.6706703E-3,-4.6727646E-2,-1.07678315E-2,1.2316119E-3,5.40698E-2],"split_indices":[261,0,11,0,0],"split_type":[0,0,0,0,0],"sum_hessian":[3.750164E0,1.6887175E0,2.0614467E0,1.0109191E0,1.0505275E0],"tree_param":{"num_deleted":"0","num_feature":"384","num_nodes":"5","size_leaf_vector":"1"}},{"base_weights":[-2.1858923E-2,-4.0081263E-1,4.2296212E-2,-6.869465E-3,-5.3115178E-2],"categories":[],"categories_nodes":[],"categories_segments":[],"categories_sizes":[],"default_left":[0,0,0,0,0],"id":44,"left_children":[1,3,-1,-1,-1],"loss_changes":[9.541513E-1,9.453982E-2,0E0,0E0,0E0],"parents":[2147483647,0,0,1,1],"right_children":[2,4,-1,-1,-1],"split_conditions":[-3.5026448E-33,5.151157E-2,4.2296212E-2,-6.869465E-3,-5.3115178E-2],"split_indices":[127,267,0,0,0],"split_type":[0,0,0,0,0],"sum_hessian":[3.654676E0,2.026871E0,1.6278049E0,1.0016377E0,1.0252333E0],"tree_param":{"num_deleted":"0","num_feature":"384","num_nodes":"5","size_leaf_vector":"1"}},{"base_weights":[-2.4033718E-2,3.7725862E-2,-4.3063354E-2],"categories":[],"categories_nodes":[],"categories_segments":[],"categories_sizes":[],"default_left":[0,0,0],"id":45,"left_children":[1,-1,-1],"loss_changes":[9.065211E-1,0E0,0E0],"parents":[2147483647,0,0],"right_children":[2,-1,-1],"split_conditions":[3.9524764E-2,3.7725862E-2,-4.3063354E-2],"split_indices":[267,0,0],"split_type":[0,0,0],"sum_hessian":[3.5601642E0,1.8280947E0,1.7320695E0],"tree_param":{"num_deleted":"0","num_feature":"384","num_nodes":"3","size_leaf_vector":"1"}},{"base_weights":[-2.3209248E-2,2.9041022E-1,-5.317929E-2,5.9563782E-2,-1.8675247E-2],"categories":[],"categories_nodes":[],"categories_segments":[],"categories_sizes":[],"default_left":[0,0,0,0,0],"id":46,"left_children":[1,3,-1,-1,-1],"loss_changes":[8.703573E-1,6.098012E-1,0E0,0E0,0E0],"parents":[2147483647,0,0,1,1],"right_children":[2,4,-1,-1,-1],"split_conditions":[2.3477985E-33,2.8352264E-2,-5.317929E-2,5.9563782E-2,-1.8675247E-2],"split_indices":[223,266,0,0,0],"split_type":[0,0,0,0,0],"sum_hessian":[3.488473E0,2.4231892E0,1.0652837E0,1.3264229E0,1.0967664E0],"tree_param":{"num_deleted":"0","num_feature":"384","num_nodes":"5","size_leaf_vector":"1"}},{"base_weights":[-2.415497E-2,3.720339E-2,-4.04206E-2],"categories":[],"categories_nodes":[],"categories_segments":[],"categories_sizes":[],"default_left":[0,0,0],"id":47,"left_children":[1,-1,-1],"loss_changes":[8.071503E-1,0E0,0E0],"parents":[2147483647,0,0],"right_children":[2,-1,-1],"split_conditions":[3.0629549E-3,3.720339E-2,-4.04206E-2],"split_indices":[72,0,0],"split_type":[0,0,0],"sum_hessian":[3.3618474E0,1.6563058E0,1.7055416E0],"tree_param":{"num_deleted":"0","num_feature":"384","num_nodes":"3","size_leaf_vector":"1"}},{"base_weights":[-2.2849344E-2,4.5990523E-2,-3.300035E-1,1.1297032E-2,-5.8307547E-2],"categories":[],"categories_nodes":[],"categories_segments":[],"categories_sizes":[],"default_left":[0,0,0,0,0],"id":48,"left_children":[1,-1,3,-1,-1],"loss_changes":[7.887577E-1,0E0,4.2546016E-1,0E0,0E0],"parents":[2147483647,0,0,2,2],"right_children":[2,-1,4,-1,-1],"split_conditions":[8.917359E-34,4.5990523E-2,1.1355443E-3,1.1297032E-2,-5.8307547E-2],"split_indices":[223,0,48,0,0],"split_type":[0,0,0,0,0],"sum_hessian":[3.2958388E0,1.088201E0,2.2076378E0,1.0039467E0,1.203691E0],"tree_param":{"num_deleted":"0","num_feature":"384","num_nodes":"5","size_leaf_vector":"1"}},{"base_weights":[-2.1508133E-2,-4.2181313E-2,3.3957418E-2],"categories":[],"categories_nodes":[],"categories_segments":[],"categories_sizes":[],"default_left":[0,0,0],"id":49,"left_children":[1,-1,-1],"loss_changes":[7.494634E-1,0E0,0E0],"parents":[2147483647,0,0],"right_children":[2,-1,-1],"split_conditions":[-7.6706703E-3,-4.2181313E-2,3.3957418E-2],"split_indices":[261,0,0],"split_type":[0,0,0],"sum_hessian":[3.1940894E0,1.43501E0,1.7590793E0],"tree_param":{"num_deleted":"0","num_feature":"384","num_nodes":"3","size_leaf_vector":"1"}},{"base_weights":[-2.1704445E-2,-3.369957E-2,4.2404946E-2],"categories":[],"categories_nodes":[],"categories_segments":[],"categories_sizes":[],"default_left":[0,0,0],"id":50,"left_children":[1,-1,-1],"loss_changes":[7.235827E-1,0E0,0E0],"parents":[2147483647,0,0],"right_children":[2,-1,-1],"split_conditions":[-3.387588E-33,-3.369957E-2,4.2404946E-2],"split_indices":[127,0,0],"split_type":[0,0,0],"sum_hessian":[3.131709E0,1.9771887E0,1.1545204E0],"tree_param":{"num_deleted":"0","num_feature":"384","num_nodes":"3","size_leaf_vector":"1"}},{"base_weights":[-1.7639471E-2,3.7245415E-2,-3.7544455E-2],"categories":[],"categories_nodes":[],"categories_segments":[],"categories_sizes":[],"default_left":[0,0,0],"id":51,"left_children":[1,-1,-1],"loss_changes":[7.0735043E-1,0E0,0E0],"parents":[2147483647,0,0],"right_children":[2,-1,-1],"split_conditions":[8.338794E-4,3.7245415E-2,-3.7544455E-2],"split_indices":[321,0,0],"split_type":[0,0,0],"sum_hessian":[3.0659466E0,1.4472042E0,1.6187423E0],"tree_param":{"num_deleted":"0","num_feature":"384","num_nodes":"3","size_leaf_vector":"1"}},{"base_weights":[-1.6179187E-2,3.5247494E-2,-3.7494756E-2],"categories":[],"categories_nodes":[],"categories_segments":[],"categories_sizes":[],"default_left":[0,0,0],"id":52,"left_children":[1,-1,-1],"loss_changes":[6.6235894E-1,0E0,0E0],"parents":[2147483647,0,0],"right_children":[2,-1,-1],"split_conditions":[3.706904E-2,3.5247494E-2,-3.7494756E-2],"split_indices":[267,0,0],"split_type":[0,0,0],"sum_hessian":[3.0087218E0,1.4925681E0,1.5161537E0],"tree_param":{"num_deleted":"0","num_feature":"384","num_nodes":"3","size_leaf_vector":"1"}},{"base_weights":[-1.5344861E-2,-3.80628E-2,3.386156E-2],"categories":[],"categories_nodes":[],"categories_segments":[],"categories_sizes":[],"default_left":[0,0,0],"id":53,"left_children":[1,-1,-1],"loss_changes":[6.4019644E-1,0E0,0E0],"parents":[2147483647,0,0],"right_children":[2,-1,-1],"split_conditions":[-3.849331E-33,-3.80628E-2,3.386156E-2],"split_indices":[127,0,0],"split_type":[0,0,0],"sum_hessian":[2.9545755E0,1.4169543E0,1.5376213E0],"tree_param":{"num_deleted":"0","num_feature":"384","num_nodes":"3","size_leaf_vector":"1"}},{"base_weights":[-1.5134545E-2,-3.3649895E-2,3.824571E-2],"categories":[],"categories_nodes":[],"categories_segments":[],"categories_sizes":[],"default_left":[0,0,0],"id":54,"left_children":[1,-1,-1],"loss_changes":[6.263221E-1,0E0,0E0],"parents":[2147483647,0,0],"right_children":[2,-1,-1],"split_conditions":[-2.2568082E-2,-3.3649895E-2,3.824571E-2],"split_indices":[11,0,0],"split_type":[0,0,0],"sum_hessian":[2.8946438E0,1.6857482E0,1.2088956E0],"tree_param":{"num_deleted":"0","num_feature":"384","num_nodes":"3","size_leaf_vector":"1"}},{"base_weights":[-1.25748785E-2,-3.817225E-2,3.2480195E-2],"categories":[],"categories_nodes":[],"categories_segments":[],"categories_sizes":[],"default_left":[0,0,0],"id":55,"left_children":[1,-1,-1],"loss_changes":[6.0268164E-1,0E0,0E0],"parents":[2147483647,0,0],"right_children":[2,-1,-1],"split_conditions":[-7.373404E-3,-3.817225E-2,3.2480195E-2],"split_indices":[261,0,0],"split_type":[0,0,0],"sum_hessian":[2.8436673E0,1.2951312E0,1.5485361E0],"tree_param":{"num_deleted":"0","num_feature":"384","num_nodes":"3","size_leaf_vector":"1"}},{"base_weights":[-1.300838E-2,3.462312E-2,-3.4488972E-2],"categories":[],"categories_nodes":[],"categories_segments":[],"categories_sizes":[],"default_left":[0,0,0],"id":56,"left_children":[1,-1,-1],"loss_changes":[5.7159096E-1,0E0,0E0],"parents":[2147483647,0,0],"right_children":[2,-1,-1],"split_conditions":[8.338794E-4,3.462312E-2,-3.4488972E-2],"split_indices":[321,0,0],"split_type":[0,0,0],"sum_hessian":[2.7926586E0,1.3202919E0,1.4723667E0],"tree_param":{"num_deleted":"0","num_feature":"384","num_nodes":"3","size_leaf_vector":"1"}},{"base_weights":[-1.1817221E-2,-3.9983716E-2,2.9076654E-2],"categories":[],"categories_nodes":[],"categories_segments":[],"categories_sizes":[],"default_left":[0,0,0],"id":57,"left_children":[1,-1,-1],"loss_changes":[5.5602604E-1,0E0,0E0],"parents":[2147483647,0,0],"right_children":[2,-1,-1],"split_conditions":[-4.779443E-33,-3.9983716E-2,2.9076654E-2],"split_indices":[127,0,0],"split_type":[0,0,0],"sum_hessian":[2.7456124E0,1.0621495E0,1.6834629E0],"tree_param":{"num_deleted":"0","num_feature":"384","num_nodes":"3","size_leaf_vector":"1"}},{"base_weights":[-1.3816198E-2,3.3223327E-2,-3.492606E-2],"categories":[],"categories_nodes":[],"categories_segments":[],"categories_sizes":[],"default_left":[0,0,0],"id":58,"left_children":[1,-1,-1],"loss_changes":[5.4476476E-1,0E0,0E0],"parents":[2147483647,0,0],"right_children":[2,-1,-1],"split_conditions":[3.0629549E-3,3.3223327E-2,-3.492606E-2],"split_indices":[72,0,0],"split_type":[0,0,0],"sum_hessian":[2.6933794E0,1.3304452E0,1.3629342E0],"tree_param":{"num_deleted":"0","num_feature":"384","num_nodes":"3","size_leaf_vector":"1"}},{"base_weights":[-1.3068416E-2,-3.1332728E-2,3.5875123E-2],"categories":[],"categories_nodes":[],"categories_segments":[],"categories_sizes":[],"default_left":[0,0,0],"id":59,"left_children":[1,-1,-1],"loss_changes":[5.196208E-1,0E0,0E0],"parents":[2147483647,0,0],"right_children":[2,-1,-1],"split_conditions":[-2.2568082E-2,-3.1332728E-2,3.5875123E-2],"split_indices":[11,0,0],"split_type":[0,0,0],"sum_hessian":[2.6474962E0,1.5517287E0,1.0957675E0],"tree_param":{"num_deleted":"0","num_feature":"384","num_nodes":"3","size_leaf_vector":"1"}},{"base_weights":[-1.0613719E-2,-3.5915397E-2,3.003119E-2],"categories":[],"categories_nodes":[],"categories_segments":[],"categories_sizes":[],"default_left":[0,0,0],"id":60,"left_children":[1,-1,-1],"loss_changes":[4.9848253E-1,0E0,0E0],"parents":[2147483647,0,0],"right_children":[2,-1,-1],"split_conditions":[-7.6706703E-3,-3.5915397E-2,3.003119E-2],"split_indices":[261,0,0],"split_type":[0,0,0],"sum_hessian":[2.60454E0,1.1548586E0,1.4496814E0],"tree_param":{"num_deleted":"0","num_feature":"384","num_nodes":"3","size_leaf_vector":"1"}},{"base_weights":[-1.1354256E-2,3.4976322E-2,-3.0469954E-2],"categories":[],"categories_nodes":[],"categories_segments":[],"categories_sizes":[],"default_left":[0,0,0],"id":61,"left_children":[1,-1,-1],"loss_changes":[4.8386696E-1,0E0,0E0],"parents":[2147483647,0,0],"right_children":[2,-1,-1],"split_conditions":[1.1098204E-33,3.4976322E-2,-3.0469954E-2],"split_indices":[223,0,0],"split_type":[0,0,0],"sum_hessian":[2.561661E0,1.0619905E0,1.4996705E0],"tree_param":{"num_deleted":"0","num_feature":"384","num_nodes":"3","size_leaf_vector":"1"}},{"base_weights":[-9.037977E-3,3.210814E-2,-3.304196E-2],"categories":[],"categories_nodes":[],"categories_segments":[],"categories_sizes":[],"default_left":[0,0,0],"id":62,"left_children":[1,-1,-1],"loss_changes":[4.79204E-1,0E0,0E0],"parents":[2147483647,0,0],"right_children":[2,-1,-1],"split_conditions":[3.706904E-2,3.210814E-2,-3.304196E-2],"split_indices":[267,0,0],"split_type":[0,0,0],"sum_hessian":[2.5167997E0,1.2419833E0,1.2748163E0],"tree_param":{"num_deleted":"0","num_feature":"384","num_nodes":"3","size_leaf_vector":"1"}},{"base_weights":[-8.500326E-3,3.1839497E-2,-3.1349596E-2],"categories":[],"categories_nodes":[],"categories_segments":[],"categories_sizes":[],"default_left":[0,0,0],"id":63,"left_children":[1,-1,-1],"loss_changes":[4.464551E-1,0E0,0E0],"parents":[2147483647,0,0],"right_children":[2,-1,-1],"split_conditions":[8.338794E-4,3.1839497E-2,-3.1349596E-2],"split_indices":[321,0,0],"split_type":[0,0,0],"sum_hessian":[2.476769E0,1.1742601E0,1.3025087E0],"tree_param":{"num_deleted":"0","num_feature":"384","num_nodes":"3","size_leaf_vector":"1"}},{"base_weights":[-7.5869327E-3,-3.0212788E-2,3.261825E-2],"categories":[],"categories_nodes":[],"categories_segments":[],"categories_sizes":[],"default_left":[0,0,0],"id":64,"left_children":[1,-1,-1],"loss_changes":[4.366717E-1,0E0,0E0],"parents":[2147483647,0,0],"right_children":[2,-1,-1],"split_conditions":[-3.5026448E-33,-3.0212788E-2,3.261825E-2],"split_indices":[127,0,0],"split_type":[0,0,0],"sum_hessian":[2.439397E0,1.34621E0,1.0931871E0],"tree_param":{"num_deleted":"0","num_feature":"384","num_nodes":"3","size_leaf_vector":"1"}},{"base_weights":[-6.1881123E-3,3.0808905E-2,-3.1432614E-2],"categories":[],"categories_nodes":[],"categories_segments":[],"categories_sizes":[],"default_left":[0,0,0],"id":65,"left_children":[1,-1,-1],"loss_changes":[4.2585182E-1,0E0,0E0],"parents":[2147483647,0,0],"right_children":[2,-1,-1],"split_conditions":[3.0629549E-3,3.0808905E-2,-3.1432614E-2],"split_indices":[72,0,0],"split_type":[0,0,0],"sum_hessian":[2.397448E0,1.1869792E0,1.2104688E0],"tree_param":{"num_deleted":"0","num_feature":"384","num_nodes":"3","size_leaf_vector":"1"}},{"base_weights":[-5.816782E-3,3.02821E-2,-3.0833615E-2],"categories":[],"categories_nodes":[],"categories_segments":[],"categories_sizes":[],"default_left":[0,0,0],"id":66,"left_children":[1,-1,-1],"loss_changes":[4.071841E-1,0E0,0E0],"parents":[2147483647,0,0],"right_children":[2,-1,-1],"split_conditions":[3.706904E-2,3.02821E-2,-3.0833615E-2],"split_indices":[267,0,0],"split_type":[0,0,0],"sum_hessian":[2.361006E0,1.1681911E0,1.1928148E0],"tree_param":{"num_deleted":"0","num_feature":"384","num_nodes":"3","size_leaf_vector":"1"}},{"base_weights":[-5.456082E-3,-3.2501377E-2,2.7959526E-2],"categories":[],"categories_nodes":[],"categories_segments":[],"categories_sizes":[],"default_left":[0,0,0],"id":67,"left_children":[1,-1,-1],"loss_changes":[3.938999E-1,0E0,0E0],"parents":[2147483647,0,0],"right_children":[2,-1,-1],"split_conditions":[-7.6706703E-3,-3.2501377E-2,2.7959526E-2],"split_indices":[261,0,0],"split_type":[0,0,0],"sum_hessian":[2.3266706E0,1.0308449E0,1.2958256E0],"tree_param":{"num_deleted":"0","num_feature":"384","num_nodes":"3","size_leaf_vector":"1"}},{"base_weights":[-6.3635996E-3,-3.128807E-2,2.8708069E-2],"categories":[],"categories_nodes":[],"categories_segments":[],"categories_sizes":[],"default_left":[0,0,0],"id":68,"left_children":[1,-1,-1],"loss_changes":[3.859551E-1,0E0,0E0],"parents":[2147483647,0,0],"right_children":[2,-1,-1],"split_conditions":[-3.849331E-33,-3.128807E-2,2.8708069E-2],"split_indices":[127,0,0],"split_type":[0,0,0],"sum_hessian":[2.2923546E0,1.0888065E0,1.203548E0],"tree_param":{"num_deleted":"0","num_feature":"384","num_nodes":"3","size_leaf_vector":"1"}},{"base_weights":[-6.598572E-3,-2.9188117E-2,3.0534972E-2],"categories":[],"categories_nodes":[],"categories_segments":[],"categories_sizes":[],"default_left":[0,0,0],"id":69,"left_children":[1,-1,-1],"loss_changes":[3.7882093E-1,0E0,0E0],"parents":[2147483647,0,0],"right_children":[2,-1,-1],"split_conditions":[-1.9416882E-2,-2.9188117E-2,3.0534972E-2],"split_indices":[94,0,0],"split_type":[0,0,0],"sum_hessian":[2.2552423E0,1.2115684E0,1.043674E0],"tree_param":{"num_deleted":"0","num_feature":"384","num_nodes":"3","size_leaf_vector":"1"}},{"base_weights":[-5.5705225E-3,2.9754926E-2,-2.9229468E-2],"categories":[],"categories_nodes":[],"categories_segments":[],"categories_sizes":[],"default_left":[0,0,0],"id":70,"left_children":[1,-1,-1],"loss_changes":[3.6715963E-1,0E0,0E0],"parents":[2147483647,0,0],"right_children":[2,-1,-1],"split_conditions":[8.144041E-4,2.9754926E-2,-2.9229468E-2],"split_indices":[48,0,0],"split_type":[0,0,0],"sum_hessian":[2.2238166E0,1.0626487E0,1.1611681E0],"tree_param":{"num_deleted":"0","num_feature":"384","num_nodes":"3","size_leaf_vector":"1"}},{"base_weights":[-4.893465E-3,2.9480314E-2,-2.8680036E-2],"categories":[],"categories_nodes":[],"categories_segments":[],"categories_sizes":[],"default_left":[0,0,0],"id":71,"left_children":[1,-1,-1],"loss_changes":[3.5429737E-1,0E0,0E0],"parents":[2147483647,0,0],"right_children":[2,-1,-1],"split_conditions":[8.338794E-4,2.9480314E-2,-2.8680036E-2],"split_indices":[321,0,0],"split_type":[0,0,0],"sum_hessian":[2.1927886E0,1.0406849E0,1.1521037E0],"tree_param":{"num_deleted":"0","num_feature":"384","num_nodes":"3","size_leaf_vector":"1"}},{"base_weights":[-4.187595E-3,-2.9850611E-2,2.7676044E-2],"categories":[],"categories_nodes":[],"categories_segments":[],"categories_sizes":[],"default_left":[0,0,0],"id":72,"left_children":[1,-1,-1],"loss_changes":[3.4413123E-1,0E0,0E0],"parents":[2147483647,0,0],"right_children":[2,-1,-1],"split_conditions":[-3.849331E-33,-2.9850611E-2,2.7676044E-2],"split_indices":[127,0,0],"split_type":[0,0,0],"sum_hessian":[2.1626823E0,1.0256866E0,1.1369957E0],"tree_param":{"num_deleted":"0","num_feature":"384","num_nodes":"3","size_leaf_vector":"1"}},{"base_weights":[-4.5137196E-3,2.830911E-2,-2.8380532E-2],"categories":[],"categories_nodes":[],"categories_segments":[],"categories_sizes":[],"default_left":[0,0,0],"id":73,"left_children":[1,-1,-1],"loss_changes":[3.3171666E-1,0E0,0E0],"parents":[2147483647,0,0],"right_children":[2,-1,-1],"split_conditions":[3.706904E-2,2.830911E-2,-2.8380532E-2],"split_indices":[267,0,0],"split_type":[0,0,0],"sum_hessian":[2.1294363E0,1.0424024E0,1.087034E0],"tree_param":{"num_deleted":"0","num_feature":"384","num_nodes":"3","size_leaf_vector":"1"}},{"base_weights":[-4.1213594E-3,-2.8325677E-2,2.775984E-2],"categories":[],"categories_nodes":[],"categories_segments":[],"categories_sizes":[],"default_left":[0,0,0],"id":74,"left_children":[1,-1,-1],"loss_changes":[3.2249984E-1,0E0,0E0],"parents":[2147483647,0,0],"right_children":[2,-1,-1],"split_conditions":[6.587073E-3,-2.8325677E-2,2.775984E-2],"split_indices":[317,0,0],"split_type":[0,0,0],"sum_hessian":[2.101151E0,1.0526758E0,1.0484751E0],"tree_param":{"num_deleted":"0","num_feature":"384","num_nodes":"3","size_leaf_vector":"1"}},{"base_weights":[-3.926736E-3,2.7576242E-2,-2.7564032E-2],"categories":[],"categories_nodes":[],"categories_segments":[],"categories_sizes":[],"default_left":[0,0,0],"id":75,"left_children":[1,-1,-1],"loss_changes":[3.0964276E-1,0E0,0E0],"parents":[2147483647,0,0],"right_children":[2,-1,-1],"split_conditions":[3.0629549E-3,2.7576242E-2,-2.7564032E-2],"split_indices":[72,0,0],"split_type":[0,0,0],"sum_hessian":[2.0742884E0,1.0148E0,1.0594884E0],"tree_param":{"num_deleted":"0","num_feature":"384","num_nodes":"3","size_leaf_vector":"1"}},{"base_weights":[-3.5599282E-3,-2.6780898E-2,2.6406465E-2],"categories":[],"categories_nodes":[],"categories_segments":[],"categories_sizes":[],"default_left":[0,0,0],"id":76,"left_children":[1,-1,-1],"loss_changes":[2.8621206E-1,0E0,0E0],"parents":[2147483647,0,0],"right_children":[2,-1,-1],"split_conditions":[6.587073E-3,-2.6780898E-2,2.6406465E-2],"split_indices":[317,0,0],"split_type":[0,0,0],"sum_hessian":[2.047152E0,1.0297253E0,1.0174266E0],"tree_param":{"num_deleted":"0","num_feature":"384","num_nodes":"3","size_leaf_vector":"1"}},{"base_weights":[-3.353588E-3,2.5815243E-2,-2.6469147E-2],"categories":[],"categories_nodes":[],"categories_segments":[],"categories_sizes":[],"default_left":[0,0,0],"id":77,"left_children":[1,-1,-1],"loss_changes":[2.7493766E-1,0E0,0E0],"parents":[2147483647,0,0],"right_children":[2,-1,-1],"split_conditions":[3.9524764E-2,2.5815243E-2,-2.6469147E-2],"split_indices":[267,0,0],"split_type":[0,0,0],"sum_hessian":[2.0231571E0,1.0173458E0,1.0058115E0],"tree_param":{"num_deleted":"0","num_feature":"384","num_nodes":"3","size_leaf_vector":"1"}},{"base_weights":[-3.2618751E-3],"categories":[],"categories_nodes":[],"categories_segments":[],"categories_sizes":[],"default_left":[0],"id":78,"left_children":[-1],"loss_changes":[0E0],"parents":[2147483647],"right_children":[-1],"split_conditions":[-3.2618752E-4],"split_indices":[0],"split_type":[0],"sum_hessian":[1.9993242E0],"tree_param":{"num_deleted":"0","num_feature":"384","num_nodes":"1","size_leaf_vector":"1"}},{"base_weights":[-3.0443685E-3],"categories":[],"categories_nodes":[],"categories_segments":[],"categories_sizes":[],"default_left":[0],"id":79,"left_children":[-1],"loss_changes":[0E0],"parents":[2147483647],"right_children":[-1],"split_conditions":[-3.0443686E-4],"split_indices":[0],"split_type":[0],"sum_hessian":[1.9993272E0],"tree_param":{"num_deleted":"0","num_feature":"384","num_nodes":"1","size_leaf_vector":"1"}},{"base_weights":[-2.8414547E-3],"categories":[],"categories_nodes":[],"categories_segments":[],"categories_sizes":[],"default_left":[0],"id":80,"left_children":[-1],"loss_changes":[0E0],"parents":[2147483647],"right_children":[-1],"split_conditions":[-2.8414547E-4],"split_indices":[0],"split_type":[0],"sum_hessian":[1.9993299E0],"tree_param":{"num_deleted":"0","num_feature":"384","num_nodes":"1","size_leaf_vector":"1"}},{"base_weights":[-2.65206E-3],"categories":[],"categories_nodes":[],"categories_segments":[],"categories_sizes":[],"default_left":[0],"id":81,"left_children":[-1],"loss_changes":[0E0],"parents":[2147483647],"right_children":[-1],"split_conditions":[-2.65206E-4],"split_indices":[0],"split_type":[0],"sum_hessian":[1.9993324E0],"tree_param":{"num_deleted":"0","num_feature":"384","num_nodes":"1","size_leaf_vector":"1"}},{"base_weights":[-2.4753045E-3],"categories":[],"categories_nodes":[],"categories_segments":[],"categories_sizes":[],"default_left":[0],"id":82,"left_children":[-1],"loss_changes":[0E0],"parents":[2147483647],"right_children":[-1],"split_conditions":[-2.4753046E-4],"split_indices":[0],"split_type":[0],"sum_hessian":[1.9993349E0],"tree_param":{"num_deleted":"0","num_feature":"384","num_nodes":"1","size_leaf_vector":"1"}},{"base_weights":[-2.3104167E-3],"categories":[],"categories_nodes":[],"categories_segments":[],"categories_sizes":[],"default_left":[0],"id":83,"left_children":[-1],"loss_changes":[0E0],"parents":[2147483647],"right_children":[-1],"split_conditions":[-2.3104167E-4],"split_indices":[0],"split_type":[0],"sum_hessian":[1.9993372E0],"tree_param":{"num_deleted":"0","num_feature":"384","num_nodes":"1","size_leaf_vector":"1"}},{"base_weights":[-2.1563491E-3],"categories":[],"categories_nodes":[],"categories_segments":[],"categories_sizes":[],"default_left":[0],"id":84,"left_children":[-1],"loss_changes":[0E0],"parents":[2147483647],"right_children":[-1],"split_conditions":[-2.1563492E-4],"split_indices":[0],"split_type":[0],"sum_hessian":[1.9993397E0],"tree_param":{"num_deleted":"0","num_feature":"384","num_nodes":"1","size_leaf_vector":"1"}},{"base_weights":[-2.0126014E-3],"categories":[],"categories_nodes":[],"categories_segments":[],"categories_sizes":[],"default_left":[0],"id":85,"left_children":[-1],"loss_changes":[0E0],"parents":[2147483647],"right_children":[-1],"split_conditions":[-2.0126013E-4],"split_indices":[0],"split_type":[0],"sum_hessian":[1.9993422E0],"tree_param":{"num_deleted":"0","num_feature":"384","num_nodes":"1","size_leaf_vector":"1"}},{"base_weights":[-1.8784379E-3],"categories":[],"categories_nodes":[],"categories_segments":[],"categories_sizes":[],"default_left":[0],"id":86,"left_children":[-1],"loss_changes":[0E0],"parents":[2147483647],"right_children":[-1],"split_conditions":[-1.8784379E-4],"split_indices":[0],"split_type":[0],"sum_hessian":[1.9993446E0],"tree_param":{"num_deleted":"0","num_feature":"384","num_nodes":"1","size_leaf_vector":"1"}},{"base_weights":[-1.7531689E-3],"categories":[],"categories_nodes":[],"categories_segments":[],"categories_sizes":[],"default_left":[0],"id":87,"left_children":[-1],"loss_changes":[0E0],"parents":[2147483647],"right_children":[-1],"split_conditions":[-1.7531689E-4],"split_indices":[0],"split_type":[0],"sum_hessian":[1.9993467E0],"tree_param":{"num_deleted":"0","num_feature":"384","num_nodes":"1","size_leaf_vector":"1"}},{"base_weights":[-1.6364197E-3],"categories":[],"categories_nodes":[],"categories_segments":[],"categories_sizes":[],"default_left":[0],"id":88,"left_children":[-1],"loss_changes":[0E0],"parents":[2147483647],"right_children":[-1],"split_conditions":[-1.6364198E-4],"split_indices":[0],"split_type":[0],"sum_hessian":[1.9993484E0],"tree_param":{"num_deleted":"0","num_feature":"384","num_nodes":"1","size_leaf_vector":"1"}},{"base_weights":[-1.5274008E-3],"categories":[],"categories_nodes":[],"categories_segments":[],"categories_sizes":[],"default_left":[0],"id":89,"left_children":[-1],"loss_changes":[0E0],"parents":[2147483647],"right_children":[-1],"split_conditions":[-1.5274009E-4],"split_indices":[0],"split_type":[0],"sum_hessian":[1.9993504E0],"tree_param":{"num_deleted":"0","num_feature":"384","num_nodes":"1","size_leaf_vector":"1"}},{"base_weights":[-1.4254245E-3],"categories":[],"categories_nodes":[],"categories_segments":[],"categories_sizes":[],"default_left":[0],"id":90,"left_children":[-1],"loss_changes":[0E0],"parents":[2147483647],"right_children":[-1],"split_conditions":[-1.4254246E-4],"split_indices":[0],"split_type":[0],"sum_hessian":[1.9993527E0],"tree_param":{"num_deleted":"0","num_feature":"384","num_nodes":"1","size_leaf_vector":"1"}},{"base_weights":[-1.3305806E-3],"categories":[],"categories_nodes":[],"categories_segments":[],"categories_sizes":[],"default_left":[0],"id":91,"left_children":[-1],"loss_changes":[0E0],"parents":[2147483647],"right_children":[-1],"split_conditions":[-1.3305806E-4],"split_indices":[0],"split_type":[0],"sum_hessian":[1.999354E0],"tree_param":{"num_deleted":"0","num_feature":"384","num_nodes":"1","size_leaf_vector":"1"}},{"base_weights":[-1.241816E-3],"categories":[],"categories_nodes":[],"categories_segments":[],"categories_sizes":[],"default_left":[0],"id":92,"left_children":[-1],"loss_changes":[0E0],"parents":[2147483647],"right_children":[-1],"split_conditions":[-1.241816E-4],"split_indices":[0],"split_type":[0],"sum_hessian":[1.9993559E0],"tree_param":{"num_deleted":"0","num_feature":"384","num_nodes":"1","size_leaf_vector":"1"}},{"base_weights":[-1.1590081E-3],"categories":[],"categories_nodes":[],"categories_segments":[],"categories_sizes":[],"default_left":[0],"id":93,"left_children":[-1],"loss_changes":[0E0],"parents":[2147483647],"right_children":[-1],"split_conditions":[-1.1590082E-4],"split_indices":[0],"split_type":[0],"sum_hessian":[1.9993577E0],"tree_param":{"num_deleted":"0","num_feature":"384","num_nodes":"1","size_leaf_vector":"1"}},{"base_weights":[-1.0818272E-3],"categories":[],"categories_nodes":[],"categories_segments":[],"categories_sizes":[],"default_left":[0],"id":94,"left_children":[-1],"loss_changes":[0E0],"parents":[2147483647],"right_children":[-1],"split_conditions":[-1.0818272E-4],"split_indices":[0],"split_type":[0],"sum_hessian":[1.999359E0],"tree_param":{"num_deleted":"0","num_feature":"384","num_nodes":"1","size_leaf_vector":"1"}},{"base_weights":[-1.0096785E-3],"categories":[],"categories_nodes":[],"categories_segments":[],"categories_sizes":[],"default_left":[0],"id":95,"left_children":[-1],"loss_changes":[0E0],"parents":[2147483647],"right_children":[-1],"split_conditions":[-1.00967845E-4],"split_indices":[0],"split_type":[0],"sum_hessian":[1.9993604E0],"tree_param":{"num_deleted":"0","num_feature":"384","num_nodes":"1","size_leaf_vector":"1"}},{"base_weights":[-9.423487E-4],"categories":[],"categories_nodes":[],"categories_segments":[],"categories_sizes":[],"default_left":[0],"id":96,"left_children":[-1],"loss_changes":[0E0],"parents":[2147483647],"right_children":[-1],"split_conditions":[-9.423487E-5],"split_indices":[0],"split_type":[0],"sum_hessian":[1.999362E0],"tree_param":{"num_deleted":"0","num_feature":"384","num_nodes":"1","size_leaf_vector":"1"}},{"base_weights":[-8.7958266E-4],"categories":[],"categories_nodes":[],"categories_segments":[],"categories_sizes":[],"default_left":[0],"id":97,"left_children":[-1],"loss_changes":[0E0],"parents":[2147483647],"right_children":[-1],"split_conditions":[-8.7958266E-5],"split_indices":[0],"split_type":[0],"sum_hessian":[1.9993631E0],"tree_param":{"num_deleted":"0","num_feature":"384","num_nodes":"1","size_leaf_vector":"1"}},{"base_weights":[-8.20947E-4],"categories":[],"categories_nodes":[],"categories_segments":[],"categories_sizes":[],"default_left":[0],"id":98,"left_children":[-1],"loss_changes":[0E0],"parents":[2147483647],"right_children":[-1],"split_conditions":[-8.20947E-5],"split_indices":[0],"split_type":[0],"sum_hessian":[1.9993644E0],"tree_param":{"num_deleted":"0","num_feature":"384","num_nodes":"1","size_leaf_vector":"1"}},{"base_weights":[-7.663583E-4],"categories":[],"categories_nodes":[],"categories_segments":[],"categories_sizes":[],"default_left":[0],"id":99,"left_children":[-1],"loss_changes":[0E0],"parents":[2147483647],"right_children":[-1],"split_conditions":[-7.663583E-5],"split_indices":[0],"split_type":[0],"sum_hessian":[1.9993653E0],"tree_param":{"num_deleted":"0","num_feature":"384","num_nodes":"1","size_leaf_vector":"1"}},{"base_weights":[-7.150583E-4],"categories":[],"categories_nodes":[],"categories_segments":[],"categories_sizes":[],"default_left":[0],"id":100,"left_children":[-1],"loss_changes":[0E0],"parents":[2147483647],"right_children":[-1],"split_conditions":[-7.1505834E-5],"split_indices":[0],"split_type":[0],"sum_hessian":[1.999367E0],"tree_param":{"num_deleted":"0","num_feature":"384","num_nodes":"1","size_leaf_vector":"1"}},{"base_weights":[-6.676402E-4],"categories":[],"categories_nodes":[],"categories_segments":[],"categories_sizes":[],"default_left":[0],"id":101,"left_children":[-1],"loss_changes":[0E0],"parents":[2147483647],"right_children":[-1],"split_conditions":[-6.676402E-5],"split_indices":[0],"split_type":[0],"sum_hessian":[1.9993672E0],"tree_param":{"num_deleted":"0","num_feature":"384","num_nodes":"1","size_leaf_vector":"1"}},{"base_weights":[-6.227949E-4],"categories":[],"categories_nodes":[],"categories_segments":[],"categories_sizes":[],"default_left":[0],"id":102,"left_children":[-1],"loss_changes":[0E0],"parents":[2147483647],"right_children":[-1],"split_conditions":[-6.227949E-5],"split_indices":[0],"split_type":[0],"sum_hessian":[1.9993691E0],"tree_param":{"num_deleted":"0","num_feature":"384","num_nodes":"1","size_leaf_vector":"1"}},{"base_weights":[-5.8156543E-4],"categories":[],"categories_nodes":[],"categories_segments":[],"categories_sizes":[],"default_left":[0],"id":103,"left_children":[-1],"loss_changes":[0E0],"parents":[2147483647],"right_children":[-1],"split_conditions":[-5.8156544E-5],"split_indices":[0],"split_type":[0],"sum_hessian":[1.9993693E0],"tree_param":{"num_deleted":"0","num_feature":"384","num_nodes":"1","size_leaf_vector":"1"}},{"base_weights":[-5.426602E-4],"categories":[],"categories_nodes":[],"categories_segments":[],"categories_sizes":[],"default_left":[0],"id":104,"left_children":[-1],"loss_changes":[0E0],"parents":[2147483647],"right_children":[-1],"split_conditions":[-5.426602E-5],"split_indices":[0],"split_type":[0],"sum_hessian":[1.9993705E0],"tree_param":{"num_deleted":"0","num_feature":"384","num_nodes":"1","size_leaf_vector":"1"}},{"base_weights":[-5.0654006E-4],"categories":[],"categories_nodes":[],"categories_segments":[],"categories_sizes":[],"default_left":[0],"id":105,"left_children":[-1],"loss_changes":[0E0],"parents":[2147483647],"right_children":[-1],"split_conditions":[-5.0654005E-5],"split_indices":[0],"split_type":[0],"sum_hessian":[1.9993709E0],"tree_param":{"num_deleted":"0","num_feature":"384","num_nodes":"1","size_leaf_vector":"1"}},{"base_weights":[-4.7276288E-4],"categories":[],"categories_nodes":[],"categories_segments":[],"categories_sizes":[],"default_left":[0],"id":106,"left_children":[-1],"loss_changes":[0E0],"parents":[2147483647],"right_children":[-1],"split_conditions":[-4.7276288E-5],"split_indices":[0],"split_type":[0],"sum_hessian":[1.9993719E0],"tree_param":{"num_deleted":"0","num_feature":"384","num_nodes":"1","size_leaf_vector":"1"}},{"base_weights":[-4.4132533E-4],"categories":[],"categories_nodes":[],"categories_segments":[],"categories_sizes":[],"default_left":[0],"id":107,"left_children":[-1],"loss_changes":[0E0],"parents":[2147483647],"right_children":[-1],"split_conditions":[-4.4132536E-5],"split_indices":[0],"split_type":[0],"sum_hessian":[1.9993725E0],"tree_param":{"num_deleted":"0","num_feature":"384","num_nodes":"1","size_leaf_vector":"1"}},{"base_weights":[-4.117846E-4],"categories":[],"categories_nodes":[],"categories_segments":[],"categories_sizes":[],"default_left":[0],"id":108,"left_children":[-1],"loss_changes":[0E0],"parents":[2147483647],"right_children":[-1],"split_conditions":[-4.117846E-5],"split_indices":[0],"split_type":[0],"sum_hessian":[1.9993733E0],"tree_param":{"num_deleted":"0","num_feature":"384","num_nodes":"1","size_leaf_vector":"1"}},{"base_weights":[-3.8447033E-4],"categories":[],"categories_nodes":[],"categories_segments":[],"categories_sizes":[],"default_left":[0],"id":109,"left_children":[-1],"loss_changes":[0E0],"parents":[2147483647],"right_children":[-1],"split_conditions":[-3.8447033E-5],"split_indices":[0],"split_type":[0],"sum_hessian":[1.9993736E0],"tree_param":{"num_deleted":"0","num_feature":"384","num_nodes":"1","size_leaf_vector":"1"}},{"base_weights":[-3.5874266E-4],"categories":[],"categories_nodes":[],"categories_segments":[],"categories_sizes":[],"default_left":[0],"id":110,"left_children":[-1],"loss_changes":[0E0],"parents":[2147483647],"right_children":[-1],"split_conditions":[-3.5874265E-5],"split_indices":[0],"split_type":[0],"sum_hessian":[1.9993744E0],"tree_param":{"num_deleted":"0","num_feature":"384","num_nodes":"1","size_leaf_vector":"1"}},{"base_weights":[-3.3472647E-4],"categories":[],"categories_nodes":[],"categories_segments":[],"categories_sizes":[],"default_left":[0],"id":111,"left_children":[-1],"loss_changes":[0E0],"parents":[2147483647],"right_children":[-1],"split_conditions":[-3.3472646E-5],"split_indices":[0],"split_type":[0],"sum_hessian":[1.9993755E0],"tree_param":{"num_deleted":"0","num_feature":"384","num_nodes":"1","size_leaf_vector":"1"}},{"base_weights":[-3.1264054E-4],"categories":[],"categories_nodes":[],"categories_segments":[],"categories_sizes":[],"default_left":[0],"id":112,"left_children":[-1],"loss_changes":[0E0],"parents":[2147483647],"right_children":[-1],"split_conditions":[-3.1264055E-5],"split_indices":[0],"split_type":[0],"sum_hessian":[1.9993755E0],"tree_param":{"num_deleted":"0","num_feature":"384","num_nodes":"1","size_leaf_vector":"1"}},{"base_weights":[-2.9183383E-4],"categories":[],"categories_nodes":[],"categories_segments":[],"categories_sizes":[],"default_left":[0],"id":113,"left_children":[-1],"loss_changes":[0E0],"parents":[2147483647],"right_children":[-1],"split_conditions":[-2.9183384E-5],"split_indices":[0],"split_type":[0],"sum_hessian":[1.9993758E0],"tree_param":{"num_deleted":"0","num_feature":"384","num_nodes":"1","size_leaf_vector":"1"}},{"base_weights":[-2.7240717E-4],"categories":[],"categories_nodes":[],"categories_segments":[],"categories_sizes":[],"default_left":[0],"id":114,"left_children":[-1],"loss_changes":[0E0],"parents":[2147483647],"right_children":[-1],"split_conditions":[-2.7240718E-5],"split_indices":[0],"split_type":[0],"sum_hessian":[1.9993763E0],"tree_param":{"num_deleted":"0","num_feature":"384","num_nodes":"1","size_leaf_vector":"1"}},{"base_weights":[-2.5426975E-4],"categories":[],"categories_nodes":[],"categories_segments":[],"categories_sizes":[],"default_left":[0],"id":115,"left_children":[-1],"loss_changes":[0E0],"parents":[2147483647],"right_children":[-1],"split_conditions":[-2.5426974E-5],"split_indices":[0],"split_type":[0],"sum_hessian":[1.9993768E0],"tree_param":{"num_deleted":"0","num_feature":"384","num_nodes":"1","size_leaf_vector":"1"}},{"base_weights":[-2.3737636E-4],"categories":[],"categories_nodes":[],"categories_segments":[],"categories_sizes":[],"default_left":[0],"id":116,"left_children":[-1],"loss_changes":[0E0],"parents":[2147483647],"right_children":[-1],"split_conditions":[-2.3737635E-5],"split_indices":[0],"split_type":[0],"sum_hessian":[1.999377E0],"tree_param":{"num_deleted":"0","num_feature":"384","num_nodes":"1","size_leaf_vector":"1"}},{"base_weights":[-2.2156216E-4],"categories":[],"categories_nodes":[],"categories_segments":[],"categories_sizes":[],"default_left":[0],"id":117,"left_children":[-1],"loss_changes":[0E0],"parents":[2147483647],"right_children":[-1],"split_conditions":[-2.2156217E-5],"split_indices":[0],"split_type":[0],"sum_hessian":[1.9993771E0],"tree_param":{"num_deleted":"0","num_feature":"384","num_nodes":"1","size_leaf_vector":"1"}},{"base_weights":[-2.0667307E-4],"categories":[],"categories_nodes":[],"categories_segments":[],"categories_sizes":[],"default_left":[0],"id":118,"left_children":[-1],"loss_changes":[0E0],"parents":[2147483647],"right_children":[-1],"split_conditions":[-2.0667307E-5],"split_indices":[0],"split_type":[0],"sum_hessian":[1.999378E0],"tree_param":{"num_deleted":"0","num_feature":"384","num_nodes":"1","size_leaf_vector":"1"}},{"base_weights":[-1.9292993E-4],"categories":[],"categories_nodes":[],"categories_segments":[],"categories_sizes":[],"default_left":[0],"id":119,"left_children":[-1],"loss_changes":[0E0],"parents":[2147483647],"right_children":[-1],"split_conditions":[-1.9292993E-5],"split_indices":[0],"split_type":[0],"sum_hessian":[1.9993782E0],"tree_param":{"num_deleted":"0","num_feature":"384","num_nodes":"1","size_leaf_vector":"1"}},{"base_weights":[-1.8018027E-4],"categories":[],"categories_nodes":[],"categories_segments":[],"categories_sizes":[],"default_left":[0],"id":120,"left_children":[-1],"loss_changes":[0E0],"parents":[2147483647],"right_children":[-1],"split_conditions":[-1.8018027E-5],"split_indices":[0],"split_type":[0],"sum_hessian":[1.9993783E0],"tree_param":{"num_deleted":"0","num_feature":"384","num_nodes":"1","size_leaf_vector":"1"}},{"base_weights":[-1.6807303E-4],"categories":[],"categories_nodes":[],"categories_segments":[],"categories_sizes":[],"default_left":[0],"id":121,"left_children":[-1],"loss_changes":[0E0],"parents":[2147483647],"right_children":[-1],"split_conditions":[-1.6807304E-5],"split_indices":[0],"split_type":[0],"sum_hessian":[1.9993787E0],"tree_param":{"num_deleted":"0","num_feature":"384","num_nodes":"1","size_leaf_vector":"1"}},{"base_weights":[-1.5670927E-4],"categories":[],"categories_nodes":[],"categories_segments":[],"categories_sizes":[],"default_left":[0],"id":122,"left_children":[-1],"loss_changes":[0E0],"parents":[2147483647],"right_children":[-1],"split_conditions":[-1.5670927E-5],"split_indices":[0],"split_type":[0],"sum_hessian":[1.9993796E0],"tree_param":{"num_deleted":"0","num_feature":"384","num_nodes":"1","size_leaf_vector":"1"}},{"base_weights":[-1.4636651E-4],"categories":[],"categories_nodes":[],"categories_segments":[],"categories_sizes":[],"default_left":[0],"id":123,"left_children":[-1],"loss_changes":[0E0],"parents":[2147483647],"right_children":[-1],"split_conditions":[-1.4636651E-5],"split_indices":[0],"split_type":[0],"sum_hessian":[1.9993795E0],"tree_param":{"num_deleted":"0","num_feature":"384","num_nodes":"1","size_leaf_vector":"1"}},{"base_weights":[-1.3654148E-4],"categories":[],"categories_nodes":[],"categories_segments":[],"categories_sizes":[],"default_left":[0],"id":124,"left_children":[-1],"loss_changes":[0E0],"parents":[2147483647],"right_children":[-1],"split_conditions":[-1.36541485E-5],"split_indices":[0],"split_type":[0],"sum_hessian":[1.9993799E0],"tree_param":{"num_deleted":"0","num_feature":"384","num_nodes":"1","size_leaf_vector":"1"}},{"base_weights":[-1.2752147E-4],"categories":[],"categories_nodes":[],"categories_segments":[],"categories_sizes":[],"default_left":[0],"id":125,"left_children":[-1],"loss_changes":[0E0],"parents":[2147483647],"right_children":[-1],"split_conditions":[-1.2752148E-5],"split_indices":[0],"split_type":[0],"sum_hessian":[1.9993799E0],"tree_param":{"num_deleted":"0","num_feature":"384","num_nodes":"1","size_leaf_vector":"1"}},{"base_weights":[-1.18957105E-4],"categories":[],"categories_nodes":[],"categories_segments":[],"categories_sizes":[],"default_left":[0],"id":126,"left_children":[-1],"loss_changes":[0E0],"parents":[2147483647],"right_children":[-1],"split_conditions":[-1.18957105E-5],"split_indices":[0],"split_type":[0],"sum_hessian":[1.9993802E0],"tree_param":{"num_deleted":"0","num_feature":"384","num_nodes":"1","size_leaf_vector":"1"}},{"base_weights":[-1.1116406E-4],"categories":[],"categories_nodes":[],"categories_segments":[],"categories_sizes":[],"default_left":[0],"id":127,"left_children":[-1],"loss_changes":[0E0],"parents":[2147483647],"right_children":[-1],"split_conditions":[-1.1116406E-5],"split_indices":[0],"split_type":[0],"sum_hessian":[1.99938E0],"tree_param":{"num_deleted":"0","num_feature":"384","num_nodes":"1","size_leaf_vector":"1"}},{"base_weights":[-1.0381006E-4],"categories":[],"categories_nodes":[],"categories_segments":[],"categories_sizes":[],"default_left":[0],"id":128,"left_children":[-1],"loss_changes":[0E0],"parents":[2147483647],"right_children":[-1],"split_conditions":[-1.0381006E-5],"split_indices":[0],"split_type":[0],"sum_hessian":[1.99938E0],"tree_param":{"num_deleted":"0","num_feature":"384","num_nodes":"1","size_leaf_vector":"1"}},{"base_weights":[-9.674466E-5],"categories":[],"categories_nodes":[],"categories_segments":[],"categories_sizes":[],"default_left":[0],"id":129,"left_children":[-1],"loss_changes":[0E0],"parents":[2147483647],"right_children":[-1],"split_conditions":[-9.674466E-6],"split_indices":[0],"split_type":[0],"sum_hessian":[1.9993804E0],"tree_param":{"num_deleted":"0","num_feature":"384","num_nodes":"1","size_leaf_vector":"1"}},{"base_weights":[-9.025106E-5],"categories":[],"categories_nodes":[],"categories_segments":[],"categories_sizes":[],"default_left":[0],"id":130,"left_children":[-1],"loss_changes":[0E0],"parents":[2147483647],"right_children":[-1],"split_conditions":[-9.025106E-6],"split_indices":[0],"split_type":[0],"sum_hessian":[1.9993807E0],"tree_param":{"num_deleted":"0","num_feature":"384","num_nodes":"1","size_leaf_vector":"1"}},{"base_weights":[-8.423596E-5],"categories":[],"categories_nodes":[],"categories_segments":[],"categories_sizes":[],"default_left":[0],"id":131,"left_children":[-1],"loss_changes":[0E0],"parents":[2147483647],"right_children":[-1],"split_conditions":[-8.423596E-6],"split_indices":[0],"split_type":[0],"sum_hessian":[1.9993807E0],"tree_param":{"num_deleted":"0","num_feature":"384","num_nodes":"1","size_leaf_vector":"1"}},{"base_weights":[-7.857483E-5],"categories":[],"categories_nodes":[],"categories_segments":[],"categories_sizes":[],"default_left":[0],"id":132,"left_children":[-1],"loss_changes":[0E0],"parents":[2147483647],"right_children":[-1],"split_conditions":[-7.857483E-6],"split_indices":[0],"split_type":[0],"sum_hessian":[1.999381E0],"tree_param":{"num_deleted":"0","num_feature":"384","num_nodes":"1","size_leaf_vector":"1"}},{"base_weights":[-7.3405696E-5],"categories":[],"categories_nodes":[],"categories_segments":[],"categories_sizes":[],"default_left":[0],"id":133,"left_children":[-1],"loss_changes":[0E0],"parents":[2147483647],"right_children":[-1],"split_conditions":[-7.3405695E-6],"split_indices":[0],"split_type":[0],"sum_hessian":[1.9993811E0],"tree_param":{"num_deleted":"0","num_feature":"384","num_nodes":"1","size_leaf_vector":"1"}},{"base_weights":[-6.8614296E-5],"categories":[],"categories_nodes":[],"categories_segments":[],"categories_sizes":[],"default_left":[0],"id":134,"left_children":[-1],"loss_changes":[0E0],"parents":[2147483647],"right_children":[-1],"split_conditions":[-6.8614295E-6],"split_indices":[0],"split_type":[0],"sum_hessian":[1.999381E0],"tree_param":{"num_deleted":"0","num_feature":"384","num_nodes":"1","size_leaf_vector":"1"}},{"base_weights":[-6.3897554E-5],"categories":[],"categories_nodes":[],"categories_segments":[],"categories_sizes":[],"default_left":[0],"id":135,"left_children":[-1],"loss_changes":[0E0],"parents":[2147483647],"right_children":[-1],"split_conditions":[-6.3897555E-6],"split_indices":[0],"split_type":[0],"sum_hessian":[1.9993815E0],"tree_param":{"num_deleted":"0","num_feature":"384","num_nodes":"1","size_leaf_vector":"1"}},{"base_weights":[-5.986302E-5],"categories":[],"categories_nodes":[],"categories_segments":[],"categories_sizes":[],"default_left":[0],"id":136,"left_children":[-1],"loss_changes":[0E0],"parents":[2147483647],"right_children":[-1],"split_conditions":[-5.9863023E-6],"split_indices":[0],"split_type":[0],"sum_hessian":[1.9993811E0],"tree_param":{"num_deleted":"0","num_feature":"384","num_nodes":"1","size_leaf_vector":"1"}},{"base_weights":[-5.5565924E-5],"categories":[],"categories_nodes":[],"categories_segments":[],"categories_sizes":[],"default_left":[0],"id":137,"left_children":[-1],"loss_changes":[0E0],"parents":[2147483647],"right_children":[-1],"split_conditions":[-5.5565924E-6],"split_indices":[0],"split_type":[0],"sum_hessian":[1.9993819E0],"tree_param":{"num_deleted":"0","num_feature":"384","num_nodes":"1","size_leaf_vector":"1"}},{"base_weights":[-5.1944666E-5],"categories":[],"categories_nodes":[],"categories_segments":[],"categories_sizes":[],"default_left":[0],"id":138,"left_children":[-1],"loss_changes":[0E0],"parents":[2147483647],"right_children":[-1],"split_conditions":[-5.1944667E-6],"split_indices":[0],"split_type":[0],"sum_hessian":[1.9993818E0],"tree_param":{"num_deleted":"0","num_feature":"384","num_nodes":"1","size_leaf_vector":"1"}},{"base_weights":[-4.859681E-5],"categories":[],"categories_nodes":[],"categories_segments":[],"categories_sizes":[],"default_left":[0],"id":139,"left_children":[-1],"loss_changes":[0E0],"parents":[2147483647],"right_children":[-1],"split_conditions":[-4.8596808E-6],"split_indices":[0],"split_type":[0],"sum_hessian":[1.9993814E0],"tree_param":{"num_deleted":"0","num_feature":"384","num_nodes":"1","size_leaf_vector":"1"}},{"base_weights":[-4.5443165E-5],"categories":[],"categories_nodes":[],"categories_segments":[],"categories_sizes":[],"default_left":[0],"id":140,"left_children":[-1],"loss_changes":[0E0],"parents":[2147483647],"right_children":[-1],"split_conditions":[-4.5443167E-6],"split_indices":[0],"split_type":[0],"sum_hessian":[1.9993814E0],"tree_param":{"num_deleted":"0","num_feature":"384","num_nodes":"1","size_leaf_vector":"1"}},{"base_weights":[-4.2314983E-5],"categories":[],"categories_nodes":[],"categories_segments":[],"categories_sizes":[],"default_left":[0],"id":141,"left_children":[-1],"loss_changes":[0E0],"parents":[2147483647],"right_children":[-1],"split_conditions":[-4.231498E-6],"split_indices":[0],"split_type":[0],"sum_hessian":[1.9993817E0],"tree_param":{"num_deleted":"0","num_feature":"384","num_nodes":"1","size_leaf_vector":"1"}},{"base_weights":[-3.9497307E-5],"categories":[],"categories_nodes":[],"categories_segments":[],"categories_sizes":[],"default_left":[0],"id":142,"left_children":[-1],"loss_changes":[0E0],"parents":[2147483647],"right_children":[-1],"split_conditions":[-3.949731E-6],"split_indices":[0],"split_type":[0],"sum_hessian":[1.9993815E0],"tree_param":{"num_deleted":"0","num_feature":"384","num_nodes":"1","size_leaf_vector":"1"}},{"base_weights":[-3.6847458E-5],"categories":[],"categories_nodes":[],"categories_segments":[],"categories_sizes":[],"default_left":[0],"id":143,"left_children":[-1],"loss_changes":[0E0],"parents":[2147483647],"right_children":[-1],"split_conditions":[-3.6847457E-6],"split_indices":[0],"split_type":[0],"sum_hessian":[1.9993817E0],"tree_param":{"num_deleted":"0","num_feature":"384","num_nodes":"1","size_leaf_vector":"1"}},{"base_weights":[-3.4537927E-5],"categories":[],"categories_nodes":[],"categories_segments":[],"categories_sizes":[],"default_left":[0],"id":144,"left_children":[-1],"loss_changes":[0E0],"parents":[2147483647],"right_children":[-1],"split_conditions":[-3.4537927E-6],"split_indices":[0],"split_type":[0],"sum_hessian":[1.9993813E0],"tree_param":{"num_deleted":"0","num_feature":"384","num_nodes":"1","size_leaf_vector":"1"}},{"base_weights":[-3.23366E-5],"categories":[],"categories_nodes":[],"categories_segments":[],"categories_sizes":[],"default_left":[0],"id":145,"left_children":[-1],"loss_changes":[0E0],"parents":[2147483647],"right_children":[-1],"split_conditions":[-3.23366E-6],"split_indices":[0],"split_type":[0],"sum_hessian":[1.9993813E0],"tree_param":{"num_deleted":"0","num_feature":"384","num_nodes":"1","size_leaf_vector":"1"}},{"base_weights":[-2.9874289E-5],"categories":[],"categories_nodes":[],"categories_segments":[],"categories_sizes":[],"default_left":[0],"id":146,"left_children":[-1],"loss_changes":[0E0],"parents":[2147483647],"right_children":[-1],"split_conditions":[-2.9874288E-6],"split_indices":[0],"split_type":[0],"sum_hessian":[1.999382E0],"tree_param":{"num_deleted":"0","num_feature":"384","num_nodes":"1","size_leaf_vector":"1"}},{"base_weights":[-2.8114355E-5],"categories":[],"categories_nodes":[],"categories_segments":[],"categories_sizes":[],"default_left":[0],"id":147,"left_children":[-1],"loss_changes":[0E0],"parents":[2147483647],"right_children":[-1],"split_conditions":[-2.8114355E-6],"split_indices":[0],"split_type":[0],"sum_hessian":[1.9993813E0],"tree_param":{"num_deleted":"0","num_feature":"384","num_nodes":"1","size_leaf_vector":"1"}},{"base_weights":[-2.6195745E-5],"categories":[],"categories_nodes":[],"categories_segments":[],"categories_sizes":[],"default_left":[0],"id":148,"left_children":[-1],"loss_changes":[0E0],"parents":[2147483647],"right_children":[-1],"split_conditions":[-2.6195746E-6],"split_indices":[0],"split_type":[0],"sum_hessian":[1.9993814E0],"tree_param":{"num_deleted":"0","num_feature":"384","num_nodes":"1","size_leaf_vector":"1"}},{"base_weights":[-2.4224186E-5],"categories":[],"categories_nodes":[],"categories_segments":[],"categories_sizes":[],"default_left":[0],"id":149,"left_children":[-1],"loss_changes":[0E0],"parents":[2147483647],"right_children":[-1],"split_conditions":[-2.4224187E-6],"split_indices":[0],"split_type":[0],"sum_hessian":[1.9993824E0],"tree_param":{"num_deleted":"0","num_feature":"384","num_nodes":"1","size_leaf_vector":"1"}}]},"name":"gbtree"},"learner_model_param":{"base_score":"[5E-1]","boost_from_average":"1","num_class":"0","num_feature":"384","num_target":"1"},"objective":{"name":"binary:logistic","reg_loss_param":{"scale_pos_weight":"1"}}},"version":[3,3,0]}